<?xml version="1.0"?>
<opencv_storage>
<stage18>
  <maxWeakCount>59</maxWeakCount>
  <stageThreshold>-8.9831835031509399e-01</stageThreshold>
  <weakClassifiers>
    <_>
      <internalNodes>
        0 -1 18070 -7.9187884926795959e-02</internalNodes>
      <leafValues>
        4.2622950673103333e-01 -1.7050068080425262e-01</leafValues></_>
    <_>
      <internalNodes>
        0 -1 54576 -1.2198415584862232e-02</internalNodes>
      <leafValues>
        -4.9912115931510925e-01 5.0838373601436615e-02</leafValues></_>
    <_>
      <internalNodes>
        0 -1 123652 5.8600744232535362e-03</internalNodes>
      <leafValues>
        -5.4439671337604523e-02 3.1484764814376831e-01</leafValues></_>
    <_>
      <internalNodes>
        0 -1 54576 -1.1468665674328804e-02</internalNodes>
      <leafValues>
        4.9463710188865662e-01 -5.4822731763124466e-02</leafValues></_>
    <_>
      <internalNodes>
        0 -1 54576 -1.1303483508527279e-02</internalNodes>
      <leafValues>
        -5.4494953155517578e-01 2.1820154506713152e-03</leafValues></_>
    <_>
      <internalNodes>
        0 -1 45908 -1.5002854168415070e-02</internalNodes>
      <leafValues>
        4.8799043893814087e-01 -1.2743016704916954e-02</leafValues></_>
    <_>
      <internalNodes>
        0 -1 352 8.2845002412796021e-02</internalNodes>
      <leafValues>
        -1.0671009868383408e-01 4.9067568778991699e-01</leafValues></_>
    <_>
      <internalNodes>
        0 -1 116756 3.5578233655542135e-04</internalNodes>
      <leafValues>
        8.9533790946006775e-02 -2.9748654365539551e-01</leafValues></_>
    <_>
      <internalNodes>
        0 -1 102520 -3.2809930853545666e-03</internalNodes>
      <leafValues>
        7.8602814674377441e-01 -1.3695004396140575e-02</leafValues></_>
    <_>
      <internalNodes>
        0 -1 40362 -2.6318097114562988e-01</internalNodes>
      <leafValues>
        -5.0417834520339966e-01 6.1342462897300720e-02</leafValues></_>
    <_>
      <internalNodes>
        0 -1 61155 -8.2335218787193298e-02</internalNodes>
      <leafValues>
        5.3114187717437744e-01 -4.6188075095415115e-02</leafValues></_>
    <_>
      <internalNodes>
        0 -1 122881 -1.5732593601569533e-03</internalNodes>
      <leafValues>
        -3.4007298946380615e-01 7.1019127964973450e-02</leafValues></_>
    <_>
      <internalNodes>
        0 -1 37014 5.9910658746957779e-03</internalNodes>
      <leafValues>
        -1.4862929284572601e-01 1.9342865049839020e-01</leafValues></_>
    <_>
      <internalNodes>
        0 -1 62209 2.0566491875797510e-03</internalNodes>
      <leafValues>
        -5.4468490183353424e-02 4.4512253999710083e-01</leafValues></_>
    <_>
      <internalNodes>
        0 -1 109574 1.5495551051571965e-03</internalNodes>
      <leafValues>
        -7.6789990067481995e-02 3.5990500450134277e-01</leafValues></_>
    <_>
      <internalNodes>
        0 -1 55636 2.7216078713536263e-02</internalNodes>
      <leafValues>
        4.4469073414802551e-02 -7.1634328365325928e-01</leafValues></_>
    <_>
      <internalNodes>
        0 -1 3573 2.3647672496736050e-03</internalNodes>
      <leafValues>
        3.0174590647220612e-02 -5.3390657901763916e-01</leafValues></_>
    <_>
      <internalNodes>
        0 -1 71485 -5.6332377716898918e-03</internalNodes>
      <leafValues>
        9.3903154134750366e-01 -3.3670719712972641e-02</leafValues></_>
    <_>
      <internalNodes>
        0 -1 2876 -9.7984001040458679e-03</internalNodes>
      <leafValues>
        3.0581933259963989e-01 -8.7736941874027252e-02</leafValues></_>
    <_>
      <internalNodes>
        0 -1 122488 -1.0371977463364601e-02</internalNodes>
      <leafValues>
        -7.7954930067062378e-01 4.4540021568536758e-02</leafValues></_>
    <_>
      <internalNodes>
        0 -1 73639 1.8499705765862018e-04</internalNodes>
      <leafValues>
        1.2045241147279739e-01 -2.1590979397296906e-01</leafValues></_>
    <_>
      <internalNodes>
        0 -1 77370 6.5485388040542603e-03</internalNodes>
      <leafValues>
        -5.6934624910354614e-02 4.9729236960411072e-01</leafValues></_>
    <_>
      <internalNodes>
        0 -1 124642 5.4613566026091576e-03</internalNodes>
      <leafValues>
        -6.1612494289875031e-02 4.2929500341415405e-01</leafValues></_>
    <_>
      <internalNodes>
        0 -1 118595 -2.8492674231529236e-02</internalNodes>
      <leafValues>
        3.7427905201911926e-01 -7.4776828289031982e-02</leafValues></_>
    <_>
      <internalNodes>
        0 -1 123339 -1.0014463216066360e-02</internalNodes>
      <leafValues>
        -4.8524510860443115e-01 6.6449873149394989e-02</leafValues></_>
    <_>
      <internalNodes>
        0 -1 29128 3.6107082851231098e-03</internalNodes>
      <leafValues>
        -1.2258818000555038e-01 2.4114213883876801e-01</leafValues></_>
    <_>
      <internalNodes>
        0 -1 114914 -3.4709976171143353e-04</internalNodes>
      <leafValues>
        -3.6413976550102234e-01 8.9727327227592468e-02</leafValues></_>
    <_>
      <internalNodes>
        0 -1 100653 1.6364610195159912e-01</internalNodes>
      <leafValues>
        -4.4484518468379974e-02 6.6699719429016113e-01</leafValues></_>
    <_>
      <internalNodes>
        0 -1 105763 1.0149819776415825e-02</internalNodes>
      <leafValues>
        4.3876420706510544e-02 -7.3274362087249756e-01</leafValues></_>
    <_>
      <internalNodes>
        0 -1 93596 5.6719994172453880e-03</internalNodes>
      <leafValues>
        -4.9807693809270859e-02 6.7794847488403320e-01</leafValues></_>
    <_>
      <internalNodes>
        0 -1 32890 -3.8710160879418254e-04</internalNodes>
      <leafValues>
        -2.5568911433219910e-01 1.1494097113609314e-01</leafValues></_>
    <_>
      <internalNodes>
        0 -1 77360 6.7340200766921043e-03</internalNodes>
      <leafValues>
        -7.6546490192413330e-02 4.1408619284629822e-01</leafValues></_>
    <_>
      <internalNodes>
        0 -1 9849 4.0661569684743881e-02</internalNodes>
      <leafValues>
        4.0610294789075851e-02 -7.9200774431228638e-01</leafValues></_>
    <_>
      <internalNodes>
        0 -1 39710 8.3766621537506580e-04</internalNodes>
      <leafValues>
        6.5766282379627228e-02 -3.9695087075233459e-01</leafValues></_>
    <_>
      <internalNodes>
        0 -1 117317 1.9000308384420350e-05</internalNodes>
      <leafValues>
        -1.5632504224777222e-01 1.9636861979961395e-01</leafValues></_>
    <_>
      <internalNodes>
        0 -1 2059 -1.2882841750979424e-02</internalNodes>
      <leafValues>
        6.2909543514251709e-01 -4.0924638509750366e-02</leafValues></_>
    <_>
      <internalNodes>
        0 -1 1158 7.0870120543986559e-04</internalNodes>
      <leafValues>
        -1.8536214530467987e-01 2.1229852735996246e-01</leafValues></_>
    <_>
      <internalNodes>
        0 -1 36999 -1.5998538583517075e-02</internalNodes>
      <leafValues>
        6.1157500743865967e-01 -4.9403406679630280e-02</leafValues></_>
    <_>
      <internalNodes>
        0 -1 99281 3.8532039616256952e-03</internalNodes>
      <leafValues>
        -7.1308165788650513e-02 4.2339274287223816e-01</leafValues></_>
    <_>
      <internalNodes>
        0 -1 79967 -5.0156200304627419e-03</internalNodes>
      <leafValues>
        -5.0121933221817017e-01 6.4964853227138519e-02</leafValues></_>
    <_>
      <internalNodes>
        0 -1 185 -2.1139051765203476e-02</internalNodes>
      <leafValues>
        3.6163198947906494e-01 -8.3743721246719360e-02</leafValues></_>
    <_>
      <internalNodes>
        0 -1 123688 2.8104661032557487e-03</internalNodes>
      <leafValues>
        -9.8726518452167511e-02 2.9524675011634827e-01</leafValues></_>
    <_>
      <internalNodes>
        0 -1 100036 2.8878040611743927e-03</internalNodes>
      <leafValues>
        -5.8651298284530640e-02 5.0108504295349121e-01</leafValues></_>
    <_>
      <internalNodes>
        0 -1 36748 -4.1856234020087868e-05</internalNodes>
      <leafValues>
        1.7844282090663910e-01 -1.7452448606491089e-01</leafValues></_>
    <_>
      <internalNodes>
        0 -1 114914 5.0284946337342262e-04</internalNodes>
      <leafValues>
        6.4395114779472351e-02 -4.2946374416351318e-01</leafValues></_>
    <_>
      <internalNodes>
        0 -1 110575 1.3507771072909236e-03</internalNodes>
      <leafValues>
        -1.1270701885223389e-01 2.7394744753837585e-01</leafValues></_>
    <_>
      <internalNodes>
        0 -1 115274 5.7647051289677620e-04</internalNodes>
      <leafValues>
        9.0348817408084869e-02 -3.9658412337303162e-01</leafValues></_>
    <_>
      <internalNodes>
        0 -1 49230 1.1556895449757576e-02</internalNodes>
      <leafValues>
        6.8670742213726044e-02 -4.1586315631866455e-01</leafValues></_>
    <_>
      <internalNodes>
        0 -1 31817 -6.4749509096145630e-02</internalNodes>
      <leafValues>
        7.3835837841033936e-01 -5.1936015486717224e-02</leafValues></_>
    <_>
      <internalNodes>
        0 -1 124064 2.0725997164845467e-02</internalNodes>
      <leafValues>
        -2.8694408014416695e-02 8.2402533292770386e-01</leafValues></_>
    <_>
      <internalNodes>
        0 -1 76510 -1.2316773645579815e-02</internalNodes>
      <leafValues>
        2.4808137118816376e-01 -1.1728826910257339e-01</leafValues></_>
    <_>
      <internalNodes>
        0 -1 89067 -2.6684753596782684e-02</internalNodes>
      <leafValues>
        -3.1802678108215332e-01 1.1351334303617477e-01</leafValues></_>
    <_>
      <internalNodes>
        0 -1 61853 -7.9320231452584267e-04</internalNodes>
      <leafValues>
        2.3446483910083771e-01 -1.3969700038433075e-01</leafValues></_>
    <_>
      <internalNodes>
        0 -1 46511 1.2217723764479160e-02</internalNodes>
      <leafValues>
        -5.3573813289403915e-02 5.8220583200454712e-01</leafValues></_>
    <_>
      <internalNodes>
        0 -1 36897 -4.7634793445467949e-03</internalNodes>
      <leafValues>
        -3.4690755605697632e-01 9.2527031898498535e-02</leafValues></_>
    <_>
      <internalNodes>
        0 -1 90553 5.3902375511825085e-03</internalNodes>
      <leafValues>
        -6.4737454056739807e-02 5.0116652250289917e-01</leafValues></_>
    <_>
      <internalNodes>
        0 -1 93439 7.2723487392067909e-04</internalNodes>
      <leafValues>
        -1.3883300125598907e-01 2.0349673926830292e-01</leafValues></_>
    <_>
      <internalNodes>
        0 -1 10137 -7.4831709265708923e-02</internalNodes>
      <leafValues>
        -7.5756132602691650e-01 3.0331648886203766e-02</leafValues></_>
    <_>
      <internalNodes>
        0 -1 73669 -4.7701420262455940e-03</internalNodes>
      <leafValues>
        3.8067457079887390e-01 -7.9940088093280792e-02</leafValues></_></weakClassifiers></stage18>
</opencv_storage>
