<?xml version="1.0"?>
<opencv_storage>
<stage13>
  <maxWeakCount>48</maxWeakCount>
  <stageThreshold>-9.3927365541458130e-01</stageThreshold>
  <weakClassifiers>
    <_>
      <internalNodes>
        0 -1 57385 -7.5008196290582418e-04</internalNodes>
      <leafValues>
        -4.7517731785774231e-01 -5.0075873732566833e-02</leafValues></_>
    <_>
      <internalNodes>
        0 -1 154 1.7772158607840538e-02</internalNodes>
      <leafValues>
        -1.0014705359935760e-01 2.3440115153789520e-01</leafValues></_>
    <_>
      <internalNodes>
        0 -1 1113 -1.5440693125128746e-02</internalNodes>
      <leafValues>
        3.5510063171386719e-01 -7.5059220194816589e-02</leafValues></_>
    <_>
      <internalNodes>
        0 -1 11822 1.5967352082952857e-03</internalNodes>
      <leafValues>
        1.3122119009494781e-01 -2.3683521151542664e-01</leafValues></_>
    <_>
      <internalNodes>
        0 -1 38871 1.9487391909933649e-05</internalNodes>
      <leafValues>
        -1.4979134500026703e-01 1.6970573365688324e-01</leafValues></_>
    <_>
      <internalNodes>
        0 -1 121101 -4.5883003622293472e-05</internalNodes>
      <leafValues>
        1.6757223010063171e-01 -1.6067232191562653e-01</leafValues></_>
    <_>
      <internalNodes>
        0 -1 47316 -1.6291722655296326e-02</internalNodes>
      <leafValues>
        -5.8366489410400391e-01 -1.6277645481750369e-03</leafValues></_>
    <_>
      <internalNodes>
        0 -1 35322 1.8993036821484566e-02</internalNodes>
      <leafValues>
        8.0352984368801117e-02 -4.8323306441307068e-01</leafValues></_>
    <_>
      <internalNodes>
        0 -1 2766 -6.8410218227654696e-04</internalNodes>
      <leafValues>
        -2.8425914049148560e-01 8.5879415273666382e-02</leafValues></_>
    <_>
      <internalNodes>
        0 -1 86724 -7.5706001371145248e-04</internalNodes>
      <leafValues>
        2.2839826345443726e-01 -1.2457126379013062e-01</leafValues></_>
    <_>
      <internalNodes>
        0 -1 123134 1.7331942915916443e-02</internalNodes>
      <leafValues>
        6.2035772949457169e-02 -5.3591817617416382e-01</leafValues></_>
    <_>
      <internalNodes>
        0 -1 86013 1.4815402682870626e-03</internalNodes>
      <leafValues>
        -1.2295783311128616e-01 2.0331524312496185e-01</leafValues></_>
    <_>
      <internalNodes>
        0 -1 115589 -4.0379958227276802e-04</internalNodes>
      <leafValues>
        -2.7647295594215393e-01 8.4572464227676392e-02</leafValues></_>
    <_>
      <internalNodes>
        0 -1 123644 -3.4118257462978363e-03</internalNodes>
      <leafValues>
        2.6213318109512329e-01 -9.4263732433319092e-02</leafValues></_>
    <_>
      <internalNodes>
        0 -1 118381 -1.7622523955651559e-05</internalNodes>
      <leafValues>
        1.7172381281852722e-01 -1.8104897439479828e-01</leafValues></_>
    <_>
      <internalNodes>
        0 -1 194 1.8649840785656124e-04</internalNodes>
      <leafValues>
        -1.7394581437110901e-01 1.6144502162933350e-01</leafValues></_>
    <_>
      <internalNodes>
        0 -1 2071 6.5757944248616695e-03</internalNodes>
      <leafValues>
        -1.1772451549768448e-01 2.6991304755210876e-01</leafValues></_>
    <_>
      <internalNodes>
        0 -1 110494 2.3481110110878944e-02</internalNodes>
      <leafValues>
        5.7669937610626221e-02 -5.4421991109848022e-01</leafValues></_>
    <_>
      <internalNodes>
        0 -1 63801 -2.3473575711250305e-02</internalNodes>
      <leafValues>
        -3.2835397124290466e-01 6.8539112806320190e-02</leafValues></_>
    <_>
      <internalNodes>
        0 -1 86354 -2.4356588721275330e-02</internalNodes>
      <leafValues>
        -3.1942740082740784e-01 8.0355308949947357e-02</leafValues></_>
    <_>
      <internalNodes>
        0 -1 118367 -2.9907963471487164e-04</internalNodes>
      <leafValues>
        -2.8746572136878967e-01 8.1739775836467743e-02</leafValues></_>
    <_>
      <internalNodes>
        0 -1 37930 -1.7858576029539108e-02</internalNodes>
      <leafValues>
        5.5143105983734131e-01 -5.7064469903707504e-02</leafValues></_>
    <_>
      <internalNodes>
        0 -1 45795 1.7257113941013813e-03</internalNodes>
      <leafValues>
        -8.5141271352767944e-02 2.7560168504714966e-01</leafValues></_>
    <_>
      <internalNodes>
        0 -1 33624 -2.2095050662755966e-03</internalNodes>
      <leafValues>
        -3.1950032711029053e-01 7.3950260877609253e-02</leafValues></_>
    <_>
      <internalNodes>
        0 -1 24241 1.0626533767208457e-03</internalNodes>
      <leafValues>
        7.4915029108524323e-02 -3.6193653941154480e-01</leafValues></_>
    <_>
      <internalNodes>
        0 -1 124808 1.5865801833570004e-03</internalNodes>
      <leafValues>
        -1.0278067737817764e-01 2.6778697967529297e-01</leafValues></_>
    <_>
      <internalNodes>
        0 -1 61780 4.4733611866831779e-03</internalNodes>
      <leafValues>
        -4.8174820840358734e-02 4.7393521666526794e-01</leafValues></_>
    <_>
      <internalNodes>
        0 -1 72169 2.0770791918039322e-02</internalNodes>
      <leafValues>
        3.7990901619195938e-02 -6.8103539943695068e-01</leafValues></_>
    <_>
      <internalNodes>
        0 -1 29160 2.5865899398922920e-02</internalNodes>
      <leafValues>
        4.9942575395107269e-02 -4.5597079396247864e-01</leafValues></_>
    <_>
      <internalNodes>
        0 -1 38598 -9.2109721153974533e-03</internalNodes>
      <leafValues>
        3.4364381432533264e-01 -8.0061137676239014e-02</leafValues></_>
    <_>
      <internalNodes>
        0 -1 79334 2.1935187280178070e-02</internalNodes>
      <leafValues>
        4.3065901845693588e-02 -5.4076468944549561e-01</leafValues></_>
    <_>
      <internalNodes>
        0 -1 98530 -5.4163197055459023e-03</internalNodes>
      <leafValues>
        5.5140483379364014e-01 -4.4407751411199570e-02</leafValues></_>
    <_>
      <internalNodes>
        0 -1 123526 -2.0611538275261410e-05</internalNodes>
      <leafValues>
        1.5075577795505524e-01 -1.7069379985332489e-01</leafValues></_>
    <_>
      <internalNodes>
        0 -1 125191 -2.5757681578397751e-03</internalNodes>
      <leafValues>
        -3.4831556677818298e-01 8.1548541784286499e-02</leafValues></_>
    <_>
      <internalNodes>
        0 -1 80864 -1.4610800892114639e-02</internalNodes>
      <leafValues>
        -5.9129619598388672e-01 4.2466014623641968e-02</leafValues></_>
    <_>
      <internalNodes>
        0 -1 79658 -5.2195023745298386e-03</internalNodes>
      <leafValues>
        4.2610153555870056e-01 -6.3800476491451263e-02</leafValues></_>
    <_>
      <internalNodes>
        0 -1 28844 1.7807710915803909e-02</internalNodes>
      <leafValues>
        -3.8381196558475494e-02 6.0078537464141846e-01</leafValues></_>
    <_>
      <internalNodes>
        0 -1 114916 -2.4162145564332604e-04</internalNodes>
      <leafValues>
        -2.7143496274948120e-01 1.0154996067285538e-01</leafValues></_>
    <_>
      <internalNodes>
        0 -1 48469 -3.7194336764514446e-03</internalNodes>
      <leafValues>
        2.1935532987117767e-01 -1.1198460310697556e-01</leafValues></_>
    <_>
      <internalNodes>
        0 -1 47626 5.9339515864849091e-03</internalNodes>
      <leafValues>
        -1.1597181856632233e-01 2.1606291830539703e-01</leafValues></_>
    <_>
      <internalNodes>
        0 -1 88937 1.6601253300905228e-03</internalNodes>
      <leafValues>
        -1.4314617216587067e-01 1.7980763316154480e-01</leafValues></_>
    <_>
      <internalNodes>
        0 -1 94449 1.7322853673249483e-03</internalNodes>
      <leafValues>
        7.5328424572944641e-02 -3.3574333786964417e-01</leafValues></_>
    <_>
      <internalNodes>
        0 -1 47191 5.6020091287791729e-03</internalNodes>
      <leafValues>
        -1.3096198439598083e-01 2.1507699787616730e-01</leafValues></_>
    <_>
      <internalNodes>
        0 -1 41591 -8.2491931971162558e-04</internalNodes>
      <leafValues>
        -2.4343051016330719e-01 1.2631323933601379e-01</leafValues></_>
    <_>
      <internalNodes>
        0 -1 105014 -2.7204930782318115e-02</internalNodes>
      <leafValues>
        3.1151735782623291e-01 -8.8118590414524078e-02</leafValues></_>
    <_>
      <internalNodes>
        0 -1 74399 3.3137418795377016e-03</internalNodes>
      <leafValues>
        -8.0263964831829071e-02 3.1937590241432190e-01</leafValues></_>
    <_>
      <internalNodes>
        0 -1 41257 -2.4387646466493607e-02</internalNodes>
      <leafValues>
        -6.2082087993621826e-01 4.4941667467355728e-02</leafValues></_>
    <_>
      <internalNodes>
        0 -1 85046 -4.5985071919858456e-03</internalNodes>
      <leafValues>
        5.7318246364593506e-01 -5.3795244544744492e-02</leafValues></_></weakClassifiers></stage13>
</opencv_storage>
