<?xml version="1.0"?>
<opencv_storage>
<stage7>
  <maxWeakCount>46</maxWeakCount>
  <stageThreshold>-1.0767371654510498e+00</stageThreshold>
  <weakClassifiers>
    <_>
      <internalNodes>
        0 -1 98530 5.7405084371566772e-03</internalNodes>
      <leafValues>
        -1.6864295303821564e-01 6.8292683362960815e-01</leafValues></_>
    <_>
      <internalNodes>
        0 -1 97876 -1.1288048699498177e-02</internalNodes>
      <leafValues>
        5.2435243129730225e-01 -8.4346830844879150e-02</leafValues></_>
    <_>
      <internalNodes>
        0 -1 1106 2.6758216321468353e-02</internalNodes>
      <leafValues>
        -6.7247591912746429e-02 4.5526015758514404e-01</leafValues></_>
    <_>
      <internalNodes>
        0 -1 64165 -1.6809703083708882e-04</internalNodes>
      <leafValues>
        -2.8223106265068054e-01 1.1026564240455627e-01</leafValues></_>
    <_>
      <internalNodes>
        0 -1 1190 -1.0697190649807453e-02</internalNodes>
      <leafValues>
        3.1591308116912842e-01 -8.8403962552547455e-02</leafValues></_>
    <_>
      <internalNodes>
        0 -1 56615 5.6062598014250398e-04</internalNodes>
      <leafValues>
        1.1676160246133804e-01 -2.9332268238067627e-01</leafValues></_>
    <_>
      <internalNodes>
        0 -1 30108 3.4737256355583668e-03</internalNodes>
      <leafValues>
        -1.4787189662456512e-01 2.0936380326747894e-01</leafValues></_>
    <_>
      <internalNodes>
        0 -1 114914 -1.0276399552822113e-03</internalNodes>
      <leafValues>
        -5.2063441276550293e-01 8.1930346786975861e-02</leafValues></_>
    <_>
      <internalNodes>
        0 -1 72483 -4.0449276566505432e-03</internalNodes>
      <leafValues>
        3.7597733736038208e-01 -1.0236092656850815e-01</leafValues></_>
    <_>
      <internalNodes>
        0 -1 84171 3.3002421259880066e-03</internalNodes>
      <leafValues>
        -5.6753560900688171e-02 5.1036614179611206e-01</leafValues></_>
    <_>
      <internalNodes>
        0 -1 45832 6.8069957196712494e-03</internalNodes>
      <leafValues>
        -6.5364688634872437e-02 4.5483028888702393e-01</leafValues></_>
    <_>
      <internalNodes>
        0 -1 27383 1.2327261269092560e-02</internalNodes>
      <leafValues>
        5.7126838713884354e-02 -5.0787591934204102e-01</leafValues></_>
    <_>
      <internalNodes>
        0 -1 17826 5.7475925423204899e-03</internalNodes>
      <leafValues>
        -1.2529264390468597e-01 2.4935521185398102e-01</leafValues></_>
    <_>
      <internalNodes>
        0 -1 47764 1.6626358032226563e-02</internalNodes>
      <leafValues>
        -6.1729285866022110e-02 5.5516678094863892e-01</leafValues></_>
    <_>
      <internalNodes>
        0 -1 1 1.0575416963547468e-03</internalNodes>
      <leafValues>
        8.6482062935829163e-02 -4.0280023217201233e-01</leafValues></_>
    <_>
      <internalNodes>
        0 -1 46213 -1.2937497347593307e-02</internalNodes>
      <leafValues>
        6.7257302999496460e-01 -6.0633089393377304e-02</leafValues></_>
    <_>
      <internalNodes>
        0 -1 43931 2.3985141888260841e-03</internalNodes>
      <leafValues>
        -4.6809151768684387e-02 5.4879921674728394e-01</leafValues></_>
    <_>
      <internalNodes>
        0 -1 34573 -2.2461153566837311e-02</internalNodes>
      <leafValues>
        -3.5151034593582153e-01 8.9406684041023254e-02</leafValues></_>
    <_>
      <internalNodes>
        0 -1 15866 9.2783998697996140e-03</internalNodes>
      <leafValues>
        7.3706157505512238e-02 -4.4629046320915222e-01</leafValues></_>
    <_>
      <internalNodes>
        0 -1 73291 3.1856279820203781e-03</internalNodes>
      <leafValues>
        -1.5302662551403046e-01 1.9990538060665131e-01</leafValues></_>
    <_>
      <internalNodes>
        0 -1 88248 1.2254016473889351e-03</internalNodes>
      <leafValues>
        6.3656300306320190e-02 -5.1060885190963745e-01</leafValues></_>
    <_>
      <internalNodes>
        0 -1 118890 -5.5311280302703381e-03</internalNodes>
      <leafValues>
        2.6217246055603027e-01 -1.4009711146354675e-01</leafValues></_>
    <_>
      <internalNodes>
        0 -1 85326 -7.6765622943639755e-03</internalNodes>
      <leafValues>
        2.5890830159187317e-01 -1.1966079473495483e-01</leafValues></_>
    <_>
      <internalNodes>
        0 -1 122416 1.5476945042610168e-01</internalNodes>
      <leafValues>
        4.3809432536363602e-02 -7.3752731084823608e-01</leafValues></_>
    <_>
      <internalNodes>
        0 -1 55915 1.5865124762058258e-02</internalNodes>
      <leafValues>
        3.5866949707269669e-02 -6.3520109653472900e-01</leafValues></_>
    <_>
      <internalNodes>
        0 -1 48021 1.9000308384420350e-05</internalNodes>
      <leafValues>
        -1.8278026580810547e-01 1.6950070858001709e-01</leafValues></_>
    <_>
      <internalNodes>
        0 -1 39710 1.2220509815961123e-03</internalNodes>
      <leafValues>
        6.3438147306442261e-02 -4.8489338159561157e-01</leafValues></_>
    <_>
      <internalNodes>
        0 -1 97 1.2432495714165270e-04</internalNodes>
      <leafValues>
        -1.9258406758308411e-01 1.5986377000808716e-01</leafValues></_>
    <_>
      <internalNodes>
        0 -1 1176 -3.3911797218024731e-03</internalNodes>
      <leafValues>
        2.6782095432281494e-01 -1.5243415534496307e-01</leafValues></_>
    <_>
      <internalNodes>
        0 -1 9743 -1.1350625427439809e-03</internalNodes>
      <leafValues>
        -3.3314701914787292e-01 9.6259616315364838e-02</leafValues></_>
    <_>
      <internalNodes>
        0 -1 9855 7.1985629620030522e-04</internalNodes>
      <leafValues>
        1.1346879601478577e-01 -2.8120994567871094e-01</leafValues></_>
    <_>
      <internalNodes>
        0 -1 69384 -2.2836152929812670e-03</internalNodes>
      <leafValues>
        4.7165292501449585e-01 -7.1693740785121918e-02</leafValues></_>
    <_>
      <internalNodes>
        0 -1 84609 -1.2579003348946571e-02</internalNodes>
      <leafValues>
        -2.8150165081024170e-01 1.1771205812692642e-01</leafValues></_>
    <_>
      <internalNodes>
        0 -1 58204 1.0826177895069122e-03</internalNodes>
      <leafValues>
        -1.4524412155151367e-01 2.3014399409294128e-01</leafValues></_>
    <_>
      <internalNodes>
        0 -1 105453 6.0748392716050148e-03</internalNodes>
      <leafValues>
        5.8315917849540710e-02 -5.3102350234985352e-01</leafValues></_>
    <_>
      <internalNodes>
        0 -1 114921 -6.5888045355677605e-03</internalNodes>
      <leafValues>
        3.7948706746101379e-01 -8.6755424737930298e-02</leafValues></_>
    <_>
      <internalNodes>
        0 -1 91870 -3.2060234807431698e-03</internalNodes>
      <leafValues>
        4.7137099504470825e-01 -7.2323873639106750e-02</leafValues></_>
    <_>
      <internalNodes>
        0 -1 123914 2.0134481019340456e-04</internalNodes>
      <leafValues>
        1.1947491019964218e-01 -3.1917712092399597e-01</leafValues></_>
    <_>
      <internalNodes>
        0 -1 77574 2.2572480142116547e-02</internalNodes>
      <leafValues>
        -1.1445165425539017e-01 3.1081604957580566e-01</leafValues></_>
    <_>
      <internalNodes>
        0 -1 57346 8.3968751132488251e-02</internalNodes>
      <leafValues>
        5.9142298996448517e-02 -5.7606875896453857e-01</leafValues></_>
    <_>
      <internalNodes>
        0 -1 124693 9.6582733094692230e-03</internalNodes>
      <leafValues>
        -6.5647788345813751e-02 5.3567105531692505e-01</leafValues></_>
    <_>
      <internalNodes>
        0 -1 122448 -1.2819822877645493e-03</internalNodes>
      <leafValues>
        -4.6053731441497803e-01 7.8203581273555756e-02</leafValues></_>
    <_>
      <internalNodes>
        0 -1 118427 -1.4746790984645486e-03</internalNodes>
      <leafValues>
        2.8319308161735535e-01 -1.2984697520732880e-01</leafValues></_>
    <_>
      <internalNodes>
        0 -1 124804 -4.0262687252834439e-04</internalNodes>
      <leafValues>
        -3.2205253839492798e-01 1.0335307568311691e-01</leafValues></_>
    <_>
      <internalNodes>
        0 -1 102202 3.4413745161145926e-03</internalNodes>
      <leafValues>
        -1.2733545899391174e-01 2.5671529769897461e-01</leafValues></_>
    <_>
      <internalNodes>
        0 -1 120855 4.0928982198238373e-03</internalNodes>
      <leafValues>
        8.7449133396148682e-02 -3.9104828238487244e-01</leafValues></_></weakClassifiers></stage7>
</opencv_storage>
