<?xml version="1.0"?>
<opencv_storage>
<stage15>
  <maxWeakCount>62</maxWeakCount>
  <stageThreshold>-9.4931071996688843e-01</stageThreshold>
  <weakClassifiers>
    <_>
      <internalNodes>
        0 -1 86239 7.2278371080756187e-03</internalNodes>
      <leafValues>
        -1.5755207836627960e-01 6.5625000000000000e-01</leafValues></_>
    <_>
      <internalNodes>
        0 -1 10889 7.8348070383071899e-03</internalNodes>
      <leafValues>
        -4.9495231360197067e-02 7.0692574977874756e-01</leafValues></_>
    <_>
      <internalNodes>
        0 -1 109570 -6.7672003060579300e-03</internalNodes>
      <leafValues>
        6.9454771280288696e-01 -4.5821011066436768e-02</leafValues></_>
    <_>
      <internalNodes>
        0 -1 92832 1.2527585960924625e-02</internalNodes>
      <leafValues>
        6.7437224090099335e-02 -3.8241526484489441e-01</leafValues></_>
    <_>
      <internalNodes>
        0 -1 42047 1.9523067749105394e-04</internalNodes>
      <leafValues>
        1.4377331733703613e-01 -1.6361349821090698e-01</leafValues></_>
    <_>
      <internalNodes>
        0 -1 54589 -3.9942242205142975e-02</internalNodes>
      <leafValues>
        -5.4066276550292969e-01 4.0031325072050095e-02</leafValues></_>
    <_>
      <internalNodes>
        0 -1 124213 -3.6864945286652073e-05</internalNodes>
      <leafValues>
        1.6323517262935638e-01 -1.3570901751518250e-01</leafValues></_>
    <_>
      <internalNodes>
        0 -1 17670 -9.3871541321277618e-02</internalNodes>
      <leafValues>
        4.5041996240615845e-01 -6.0829460620880127e-02</leafValues></_>
    <_>
      <internalNodes>
        0 -1 93728 3.1402388121932745e-03</internalNodes>
      <leafValues>
        -7.1945272386074066e-02 3.4813061356544495e-01</leafValues></_>
    <_>
      <internalNodes>
        0 -1 10481 1.4846801757812500e-02</internalNodes>
      <leafValues>
        -1.3488164544105530e-01 1.7697322368621826e-01</leafValues></_>
    <_>
      <internalNodes>
        0 -1 115552 -7.6834581792354584e-02</internalNodes>
      <leafValues>
        2.8598895668983459e-01 -9.5141030848026276e-02</leafValues></_>
    <_>
      <internalNodes>
        0 -1 4365 -1.8985351547598839e-02</internalNodes>
      <leafValues>
        5.9386938810348511e-01 -2.4481175467371941e-02</leafValues></_>
    <_>
      <internalNodes>
        0 -1 32597 1.1742535047233105e-02</internalNodes>
      <leafValues>
        6.3085161149501801e-02 -3.1777861714363098e-01</leafValues></_>
    <_>
      <internalNodes>
        0 -1 52073 9.5585640519857407e-03</internalNodes>
      <leafValues>
        -1.0557180643081665e-01 2.1178080141544342e-01</leafValues></_>
    <_>
      <internalNodes>
        0 -1 9680 1.6587959602475166e-02</internalNodes>
      <leafValues>
        -6.2958337366580963e-02 3.7053644657135010e-01</leafValues></_>
    <_>
      <internalNodes>
        0 -1 112466 -4.6695838682353497e-04</internalNodes>
      <leafValues>
        -2.9444968700408936e-01 7.3319837450981140e-02</leafValues></_>
    <_>
      <internalNodes>
        0 -1 114911 -3.4077027812600136e-03</internalNodes>
      <leafValues>
        -3.3442610502243042e-01 8.2821436226367950e-02</leafValues></_>
    <_>
      <internalNodes>
        0 -1 99955 1.4012060128152370e-03</internalNodes>
      <leafValues>
        -1.2135943770408630e-01 2.4866972863674164e-01</leafValues></_>
    <_>
      <internalNodes>
        0 -1 99943 -9.9791307002305984e-04</internalNodes>
      <leafValues>
        2.4627569317817688e-01 -1.2749046087265015e-01</leafValues></_>
    <_>
      <internalNodes>
        0 -1 47135 9.7963847219944000e-03</internalNodes>
      <leafValues>
        -8.4491454064846039e-02 3.3957833051681519e-01</leafValues></_>
    <_>
      <internalNodes>
        0 -1 76847 -7.0663224905729294e-03</internalNodes>
      <leafValues>
        8.2575255632400513e-01 -2.5887750089168549e-02</leafValues></_>
    <_>
      <internalNodes>
        0 -1 121845 -2.8971960768103600e-02</internalNodes>
      <leafValues>
        -5.0060468912124634e-01 5.0161417573690414e-02</leafValues></_>
    <_>
      <internalNodes>
        0 -1 53488 1.3992267660796642e-02</internalNodes>
      <leafValues>
        -8.5188850760459900e-02 2.9717776179313660e-01</leafValues></_>
    <_>
      <internalNodes>
        0 -1 88262 7.3019508272409439e-04</internalNodes>
      <leafValues>
        7.6055340468883514e-02 -3.1651005148887634e-01</leafValues></_>
    <_>
      <internalNodes>
        0 -1 47523 -4.6923430636525154e-03</internalNodes>
      <leafValues>
        3.7330663204193115e-01 -6.3654243946075439e-02</leafValues></_>
    <_>
      <internalNodes>
        0 -1 9927 2.2464389985543676e-05</internalNodes>
      <leafValues>
        -1.6172873973846436e-01 1.5168444812297821e-01</leafValues></_>
    <_>
      <internalNodes>
        0 -1 9562 2.3656124249100685e-03</internalNodes>
      <leafValues>
        1.0221862047910690e-01 -2.6536330580711365e-01</leafValues></_>
    <_>
      <internalNodes>
        0 -1 9562 2.2737252947990783e-05</internalNodes>
      <leafValues>
        -1.8586735427379608e-01 1.4424562454223633e-01</leafValues></_>
    <_>
      <internalNodes>
        0 -1 79535 1.6454946249723434e-02</internalNodes>
      <leafValues>
        -3.5386338829994202e-02 5.7591670751571655e-01</leafValues></_>
    <_>
      <internalNodes>
        0 -1 10562 1.8749136477708817e-02</internalNodes>
      <leafValues>
        -4.3140459805727005e-02 5.1186037063598633e-01</leafValues></_>
    <_>
      <internalNodes>
        0 -1 47299 -1.4231645502150059e-02</internalNodes>
      <leafValues>
        -5.6271350383758545e-01 4.2401716113090515e-02</leafValues></_>
    <_>
      <internalNodes>
        0 -1 76128 1.1965172365307808e-02</internalNodes>
      <leafValues>
        7.8509062528610229e-02 -3.1462615728378296e-01</leafValues></_>
    <_>
      <internalNodes>
        0 -1 98302 1.0271748760715127e-03</internalNodes>
      <leafValues>
        -1.1887469142675400e-01 2.2239072620868683e-01</leafValues></_>
    <_>
      <internalNodes>
        0 -1 124626 -4.5012254267930984e-02</internalNodes>
      <leafValues>
        -7.5766450166702271e-01 3.1778536736965179e-02</leafValues></_>
    <_>
      <internalNodes>
        0 -1 124633 1.7587770707905293e-03</internalNodes>
      <leafValues>
        -8.2424893975257874e-02 3.4209421277046204e-01</leafValues></_>
    <_>
      <internalNodes>
        0 -1 26095 -1.1032275855541229e-02</internalNodes>
      <leafValues>
        -5.1985079050064087e-01 5.3679820150136948e-02</leafValues></_>
    <_>
      <internalNodes>
        0 -1 123528 4.3224804103374481e-03</internalNodes>
      <leafValues>
        -4.9658365547657013e-02 5.4205274581909180e-01</leafValues></_>
    <_>
      <internalNodes>
        0 -1 124801 -9.8204042296856642e-04</internalNodes>
      <leafValues>
        -2.6493462920188904e-01 9.7894921898841858e-02</leafValues></_>
    <_>
      <internalNodes>
        0 -1 24937 9.5569789409637451e-03</internalNodes>
      <leafValues>
        6.1930980533361435e-02 -3.9871302247047424e-01</leafValues></_>
    <_>
      <internalNodes>
        0 -1 60794 8.8683341164141893e-04</internalNodes>
      <leafValues>
        -1.4507733285427094e-01 1.8115405738353729e-01</leafValues></_>
    <_>
      <internalNodes>
        0 -1 71485 2.3997244425117970e-03</internalNodes>
      <leafValues>
        -6.3285358250141144e-02 3.8205078244209290e-01</leafValues></_>
    <_>
      <internalNodes>
        0 -1 83382 2.2172901779413223e-02</internalNodes>
      <leafValues>
        4.4526707381010056e-02 -5.6126135587692261e-01</leafValues></_>
    <_>
      <internalNodes>
        0 -1 101025 -8.2333834143355489e-04</internalNodes>
      <leafValues>
        -3.0780437588691711e-01 7.9768031835556030e-02</leafValues></_>
    <_>
      <internalNodes>
        0 -1 57837 1.7948441207408905e-02</internalNodes>
      <leafValues>
        -1.0436096042394638e-01 2.6255819201469421e-01</leafValues></_>
    <_>
      <internalNodes>
        0 -1 93719 3.1220749951899052e-03</internalNodes>
      <leafValues>
        -1.4855831861495972e-01 1.9044123589992523e-01</leafValues></_>
    <_>
      <internalNodes>
        0 -1 124813 1.1930622858926654e-03</internalNodes>
      <leafValues>
        -1.3437426090240479e-01 1.9648830592632294e-01</leafValues></_>
    <_>
      <internalNodes>
        0 -1 20631 4.1536316275596619e-02</internalNodes>
      <leafValues>
        -1.3207007944583893e-01 2.2275578975677490e-01</leafValues></_>
    <_>
      <internalNodes>
        0 -1 45191 -1.8917337059974670e-02</internalNodes>
      <leafValues>
        -2.8053522109985352e-01 8.6728557944297791e-02</leafValues></_>
    <_>
      <internalNodes>
        0 -1 114663 1.6843553632497787e-02</internalNodes>
      <leafValues>
        -1.1860600858926773e-01 2.1914555132389069e-01</leafValues></_>
    <_>
      <internalNodes>
        0 -1 114718 -2.2650699975201860e-05</internalNodes>
      <leafValues>
        1.9171582162380219e-01 -1.5113432705402374e-01</leafValues></_>
    <_>
      <internalNodes>
        0 -1 44477 1.8620110495248809e-05</internalNodes>
      <leafValues>
        -1.5753690898418427e-01 1.6011473536491394e-01</leafValues></_>
    <_>
      <internalNodes>
        0 -1 107113 -4.8684512148611248e-04</internalNodes>
      <leafValues>
        -2.2187493741512299e-01 1.2024557590484619e-01</leafValues></_>
    <_>
      <internalNodes>
        0 -1 111541 4.3795425444841385e-03</internalNodes>
      <leafValues>
        -1.0966419428586960e-01 2.7054721117019653e-01</leafValues></_>
    <_>
      <internalNodes>
        0 -1 123263 -4.6139270998537540e-03</internalNodes>
      <leafValues>
        -3.2262781262397766e-01 8.7142966687679291e-02</leafValues></_>
    <_>
      <internalNodes>
        0 -1 107840 -3.2090842723846436e-03</internalNodes>
      <leafValues>
        2.6273059844970703e-01 -1.0267116874456406e-01</leafValues></_>
    <_>
      <internalNodes>
        0 -1 121305 1.0218528332188725e-03</internalNodes>
      <leafValues>
        8.7279051542282104e-02 -3.1604060530662537e-01</leafValues></_>
    <_>
      <internalNodes>
        0 -1 12568 1.9978373311460018e-03</internalNodes>
      <leafValues>
        4.9933776259422302e-02 -4.7650685906410217e-01</leafValues></_>
    <_>
      <internalNodes>
        0 -1 11737 1.1416735127568245e-02</internalNodes>
      <leafValues>
        -6.8087950348854065e-02 4.0388694405555725e-01</leafValues></_>
    <_>
      <internalNodes>
        0 -1 121217 -5.9482837095856667e-03</internalNodes>
      <leafValues>
        5.9452247619628906e-01 -4.4194962829351425e-02</leafValues></_>
    <_>
      <internalNodes>
        0 -1 124718 -2.0320385228842497e-03</internalNodes>
      <leafValues>
        -3.1644901633262634e-01 9.8418168723583221e-02</leafValues></_>
    <_>
      <internalNodes>
        0 -1 90324 -1.0451167821884155e-02</internalNodes>
      <leafValues>
        -5.4634177684783936e-01 4.0748305618762970e-02</leafValues></_>
    <_>
      <internalNodes>
        0 -1 105713 1.6982808010652661e-03</internalNodes>
      <leafValues>
        -1.2321568280458450e-01 2.0579929649829865e-01</leafValues></_></weakClassifiers></stage15>
</opencv_storage>
