<?xml version="1.0"?>
<opencv_storage>
<stage16>
  <maxWeakCount>39</maxWeakCount>
  <stageThreshold>-1.2716113328933716e+00</stageThreshold>
  <weakClassifiers>
    <_>
      <internalNodes>
        0 -1 123556 4.1347445221617818e-04</internalNodes>
      <leafValues>
        -2.7126437425613403e-01 -6.1395347118377686e-01</leafValues></_>
    <_>
      <internalNodes>
        0 -1 115589 4.2913234210573137e-04</internalNodes>
      <leafValues>
        6.1552848666906357e-02 -4.1556304693222046e-01</leafValues></_>
    <_>
      <internalNodes>
        0 -1 122670 -6.2959147617220879e-03</internalNodes>
      <leafValues>
        -2.8548309206962585e-01 1.3570559024810791e-01</leafValues></_>
    <_>
      <internalNodes>
        0 -1 63920 -1.7727468162775040e-02</internalNodes>
      <leafValues>
        -6.1688697338104248e-01 4.3331060558557510e-02</leafValues></_>
    <_>
      <internalNodes>
        0 -1 54494 1.5271008014678955e-03</internalNodes>
      <leafValues>
        1.6228744387626648e-01 -2.1102610230445862e-01</leafValues></_>
    <_>
      <internalNodes>
        0 -1 53762 -1.5404370613396168e-02</internalNodes>
      <leafValues>
        -4.7271761298179626e-01 7.2435446083545685e-02</leafValues></_>
    <_>
      <internalNodes>
        0 -1 60268 -3.1511867418885231e-03</internalNodes>
      <leafValues>
        -2.4299922585487366e-01 1.3281778991222382e-01</leafValues></_>
    <_>
      <internalNodes>
        0 -1 69468 5.5406559258699417e-03</internalNodes>
      <leafValues>
        -8.7217524647712708e-02 4.2088851332664490e-01</leafValues></_>
    <_>
      <internalNodes>
        0 -1 122040 4.9341511912643909e-03</internalNodes>
      <leafValues>
        5.5814776569604874e-02 -6.3463252782821655e-01</leafValues></_>
    <_>
      <internalNodes>
        0 -1 28704 -2.3328713141381741e-03</internalNodes>
      <leafValues>
        4.3269890546798706e-01 -8.7682805955410004e-02</leafValues></_>
    <_>
      <internalNodes>
        0 -1 63923 9.8318355157971382e-03</internalNodes>
      <leafValues>
        1.0820919275283813e-01 -3.2455733418464661e-01</leafValues></_>
    <_>
      <internalNodes>
        0 -1 93496 -1.5388294123113155e-03</internalNodes>
      <leafValues>
        3.5476914048194885e-01 -1.1376459151506424e-01</leafValues></_>
    <_>
      <internalNodes>
        0 -1 105604 -3.1733261421322823e-03</internalNodes>
      <leafValues>
        6.7426365613937378e-01 -5.7623218744993210e-02</leafValues></_>
    <_>
      <internalNodes>
        0 -1 12824 -8.3772018551826477e-03</internalNodes>
      <leafValues>
        -4.6909520030021667e-01 7.8217811882495880e-02</leafValues></_>
    <_>
      <internalNodes>
        0 -1 111086 2.0663246512413025e-02</internalNodes>
      <leafValues>
        -1.2145973742008209e-01 3.0995160341262817e-01</leafValues></_>
    <_>
      <internalNodes>
        0 -1 106630 5.6507494300603867e-03</internalNodes>
      <leafValues>
        -1.0886640846729279e-01 3.5850557684898376e-01</leafValues></_>
    <_>
      <internalNodes>
        0 -1 100466 -2.0289512758608907e-04</internalNodes>
      <leafValues>
        -2.7015349268913269e-01 1.2955152988433838e-01</leafValues></_>
    <_>
      <internalNodes>
        0 -1 109794 2.6557832024991512e-03</internalNodes>
      <leafValues>
        -1.1837649345397949e-01 3.0435803532600403e-01</leafValues></_>
    <_>
      <internalNodes>
        0 -1 515 4.9679800868034363e-02</internalNodes>
      <leafValues>
        -1.1918788403272629e-01 2.7447068691253662e-01</leafValues></_>
    <_>
      <internalNodes>
        0 -1 20295 1.0107714915648103e-03</internalNodes>
      <leafValues>
        8.3686210215091705e-02 -3.9592942595481873e-01</leafValues></_>
    <_>
      <internalNodes>
        0 -1 54811 -2.2370028309524059e-03</internalNodes>
      <leafValues>
        4.5571827888488770e-01 -7.7722288668155670e-02</leafValues></_>
    <_>
      <internalNodes>
        0 -1 118087 -9.3430578708648682e-03</internalNodes>
      <leafValues>
        7.8148466348648071e-01 -4.0884267538785934e-02</leafValues></_>
    <_>
      <internalNodes>
        0 -1 39804 -3.0896388925611973e-03</internalNodes>
      <leafValues>
        2.7198353409767151e-01 -1.2675623595714569e-01</leafValues></_>
    <_>
      <internalNodes>
        0 -1 38045 -1.0263182222843170e-02</internalNodes>
      <leafValues>
        -4.8265776038169861e-01 7.1903064846992493e-02</leafValues></_>
    <_>
      <internalNodes>
        0 -1 28900 1.2982424348592758e-02</internalNodes>
      <leafValues>
        -7.2742074728012085e-02 5.5346047878265381e-01</leafValues></_>
    <_>
      <internalNodes>
        0 -1 115599 -9.3143526464700699e-03</internalNodes>
      <leafValues>
        -8.1113541126251221e-01 4.2902722954750061e-02</leafValues></_>
    <_>
      <internalNodes>
        0 -1 45931 -1.4396227896213531e-02</internalNodes>
      <leafValues>
        4.0112602710723877e-01 -9.4279214739799500e-02</leafValues></_>
    <_>
      <internalNodes>
        0 -1 92976 5.8513563126325607e-03</internalNodes>
      <leafValues>
        -1.5476241707801819e-01 2.3215982317924500e-01</leafValues></_>
    <_>
      <internalNodes>
        0 -1 110150 6.2470026314258575e-03</internalNodes>
      <leafValues>
        1.2022164463996887e-01 -3.3766081929206848e-01</leafValues></_>
    <_>
      <internalNodes>
        0 -1 20277 -2.2063229233026505e-02</internalNodes>
      <leafValues>
        3.2722753286361694e-01 -1.1286140978336334e-01</leafValues></_>
    <_>
      <internalNodes>
        0 -1 105264 -1.7475903034210205e-02</internalNodes>
      <leafValues>
        -7.1007150411605835e-01 5.5197417736053467e-02</leafValues></_>
    <_>
      <internalNodes>
        0 -1 10070 3.6709390114992857e-03</internalNodes>
      <leafValues>
        -1.7234018445014954e-01 2.1959251165390015e-01</leafValues></_>
    <_>
      <internalNodes>
        0 -1 75713 4.9398057162761688e-03</internalNodes>
      <leafValues>
        -6.8553306162357330e-02 5.8416664600372314e-01</leafValues></_>
    <_>
      <internalNodes>
        0 -1 72862 -1.8284328281879425e-02</internalNodes>
      <leafValues>
        -4.8777464032173157e-01 9.1480076313018799e-02</leafValues></_>
    <_>
      <internalNodes>
        0 -1 57010 -9.4933463260531425e-03</internalNodes>
      <leafValues>
        2.7466872334480286e-01 -1.4089781045913696e-01</leafValues></_>
    <_>
      <internalNodes>
        0 -1 87455 -1.4702616259455681e-02</internalNodes>
      <leafValues>
        -5.5253946781158447e-01 6.9522291421890259e-02</leafValues></_>
    <_>
      <internalNodes>
        0 -1 56033 4.9066063016653061e-02</internalNodes>
      <leafValues>
        -1.1444427073001862e-01 4.0967747569084167e-01</leafValues></_>
    <_>
      <internalNodes>
        0 -1 993 1.0121853090822697e-02</internalNodes>
      <leafValues>
        6.8302944302558899e-02 -5.9968733787536621e-01</leafValues></_>
    <_>
      <internalNodes>
        0 -1 103739 3.1355600804090500e-03</internalNodes>
      <leafValues>
        -7.1777403354644775e-02 5.8758866786956787e-01</leafValues></_></weakClassifiers></stage16>
</opencv_storage>
