<?xml version="1.0"?>
<opencv_storage>
<stage12>
  <maxWeakCount>57</maxWeakCount>
  <stageThreshold>-9.5333653688430786e-01</stageThreshold>
  <weakClassifiers>
    <_>
      <internalNodes>
        0 -1 123462 -2.9172482900321484e-03</internalNodes>
      <leafValues>
        2.2142857313156128e-01 -1.9848485291004181e-01</leafValues></_>
    <_>
      <internalNodes>
        0 -1 119301 5.3700676653534174e-04</internalNodes>
      <leafValues>
        9.2124640941619873e-02 -2.9872524738311768e-01</leafValues></_>
    <_>
      <internalNodes>
        0 -1 1360 -5.8137476444244385e-02</internalNodes>
      <leafValues>
        5.2597743272781372e-01 -4.6258576214313507e-02</leafValues></_>
    <_>
      <internalNodes>
        0 -1 124721 -9.9950851872563362e-03</internalNodes>
      <leafValues>
        5.8122104406356812e-01 -3.6474939435720444e-02</leafValues></_>
    <_>
      <internalNodes>
        0 -1 102834 2.5545768439769745e-02</internalNodes>
      <leafValues>
        -1.5819945931434631e-01 1.4480167627334595e-01</leafValues></_>
    <_>
      <internalNodes>
        0 -1 87262 1.6571428626775742e-02</internalNodes>
      <leafValues>
        -8.2513675093650818e-02 2.9926466941833496e-01</leafValues></_>
    <_>
      <internalNodes>
        0 -1 89043 -1.0200329124927521e-02</internalNodes>
      <leafValues>
        2.7761375904083252e-01 -1.0783109068870544e-01</leafValues></_>
    <_>
      <internalNodes>
        0 -1 32183 -4.1983358096331358e-04</internalNodes>
      <leafValues>
        -2.2976596653461456e-01 1.1189408600330353e-01</leafValues></_>
    <_>
      <internalNodes>
        0 -1 85046 2.2069225087761879e-03</internalNodes>
      <leafValues>
        -5.0763573497533798e-02 3.6775994300842285e-01</leafValues></_>
    <_>
      <internalNodes>
        0 -1 123002 -1.5907038468867540e-03</internalNodes>
      <leafValues>
        -3.2319229841232300e-01 5.8786377310752869e-02</leafValues></_>
    <_>
      <internalNodes>
        0 -1 123038 4.6776840463280678e-03</internalNodes>
      <leafValues>
        8.4808431565761566e-02 -3.3309325575828552e-01</leafValues></_>
    <_>
      <internalNodes>
        0 -1 102742 -3.9135921746492386e-02</internalNodes>
      <leafValues>
        3.7285315990447998e-01 -8.7777309119701385e-02</leafValues></_>
    <_>
      <internalNodes>
        0 -1 45 7.1394955739378929e-03</internalNodes>
      <leafValues>
        -6.7785687744617462e-02 3.0855426192283630e-01</leafValues></_>
    <_>
      <internalNodes>
        0 -1 20317 4.1662375442683697e-03</internalNodes>
      <leafValues>
        -1.1409784853458405e-01 2.3388035595417023e-01</leafValues></_>
    <_>
      <internalNodes>
        0 -1 23930 -1.5317789278924465e-02</internalNodes>
      <leafValues>
        -6.0009324550628662e-01 3.5759430378675461e-02</leafValues></_>
    <_>
      <internalNodes>
        0 -1 53826 -3.4049332141876221e-02</internalNodes>
      <leafValues>
        -4.7274991869926453e-01 5.2277494221925735e-02</leafValues></_>
    <_>
      <internalNodes>
        0 -1 37167 -2.0904270932078362e-03</internalNodes>
      <leafValues>
        -2.1405109763145447e-01 1.0438061505556107e-01</leafValues></_>
    <_>
      <internalNodes>
        0 -1 71961 -2.5784783065319061e-04</internalNodes>
      <leafValues>
        1.8598440289497375e-01 -1.1864084005355835e-01</leafValues></_>
    <_>
      <internalNodes>
        0 -1 121512 9.4819057267159224e-04</internalNodes>
      <leafValues>
        -1.0927556455135345e-01 2.0493070781230927e-01</leafValues></_>
    <_>
      <internalNodes>
        0 -1 79938 1.3587612658739090e-02</internalNodes>
      <leafValues>
        -5.8768235146999359e-02 4.2265495657920837e-01</leafValues></_>
    <_>
      <internalNodes>
        0 -1 118244 4.9927532672882080e-03</internalNodes>
      <leafValues>
        6.3764080405235291e-02 -3.8321727514266968e-01</leafValues></_>
    <_>
      <internalNodes>
        0 -1 48927 8.1441365182399750e-03</internalNodes>
      <leafValues>
        -4.4033609330654144e-02 5.7140761613845825e-01</leafValues></_>
    <_>
      <internalNodes>
        0 -1 118251 1.1451542377471924e-04</internalNodes>
      <leafValues>
        -1.3206841051578522e-01 1.6591495275497437e-01</leafValues></_>
    <_>
      <internalNodes>
        0 -1 23564 -9.7209052182734013e-04</internalNodes>
      <leafValues>
        -3.0483731627464294e-01 7.3538303375244141e-02</leafValues></_>
    <_>
      <internalNodes>
        0 -1 64323 5.2793819457292557e-02</internalNodes>
      <leafValues>
        3.7473943084478378e-02 -6.5731495618820190e-01</leafValues></_>
    <_>
      <internalNodes>
        0 -1 47317 -3.0045993626117706e-03</internalNodes>
      <leafValues>
        2.0222042500972748e-01 -1.3332553207874298e-01</leafValues></_>
    <_>
      <internalNodes>
        0 -1 114914 -2.9597565298900008e-04</internalNodes>
      <leafValues>
        -2.9043650627136230e-01 7.5002506375312805e-02</leafValues></_>
    <_>
      <internalNodes>
        0 -1 123645 3.5731885582208633e-03</internalNodes>
      <leafValues>
        -9.4153426587581635e-02 2.5687560439109802e-01</leafValues></_>
    <_>
      <internalNodes>
        0 -1 123645 -3.2886022236198187e-03</internalNodes>
      <leafValues>
        2.3646147549152374e-01 -1.1901200562715530e-01</leafValues></_>
    <_>
      <internalNodes>
        0 -1 118690 4.0004746551858261e-05</internalNodes>
      <leafValues>
        -1.6310869157314301e-01 1.8088175356388092e-01</leafValues></_>
    <_>
      <internalNodes>
        0 -1 79295 -1.1507971212267876e-02</internalNodes>
      <leafValues>
        5.8049690723419189e-01 -3.9576757699251175e-02</leafValues></_>
    <_>
      <internalNodes>
        0 -1 28369 3.3379592001438141e-02</internalNodes>
      <leafValues>
        4.1533544659614563e-02 -6.9667011499404907e-01</leafValues></_>
    <_>
      <internalNodes>
        0 -1 83188 -1.2446261011064053e-02</internalNodes>
      <leafValues>
        6.9037759304046631e-01 -4.6864341944456100e-02</leafValues></_>
    <_>
      <internalNodes>
        0 -1 54509 1.7233360558748245e-02</internalNodes>
      <leafValues>
        -4.5181095600128174e-02 5.2404552698135376e-01</leafValues></_>
    <_>
      <internalNodes>
        0 -1 4380 -1.1964149773120880e-02</internalNodes>
      <leafValues>
        5.9132790565490723e-01 -3.3600132912397385e-02</leafValues></_>
    <_>
      <internalNodes>
        0 -1 61944 -1.3457450270652771e-01</internalNodes>
      <leafValues>
        -7.1496993303298950e-01 3.1809836626052856e-02</leafValues></_>
    <_>
      <internalNodes>
        0 -1 90552 1.1744401417672634e-03</internalNodes>
      <leafValues>
        -1.3093236088752747e-01 1.6499844193458557e-01</leafValues></_>
    <_>
      <internalNodes>
        0 -1 107750 6.6964641213417053e-02</internalNodes>
      <leafValues>
        6.0030519962310791e-02 -4.6268141269683838e-01</leafValues></_>
    <_>
      <internalNodes>
        0 -1 84753 3.4396911505609751e-03</internalNodes>
      <leafValues>
        -1.2893420457839966e-01 2.0584906637668610e-01</leafValues></_>
    <_>
      <internalNodes>
        0 -1 123553 8.3711789920926094e-04</internalNodes>
      <leafValues>
        6.4255177974700928e-02 -3.5094845294952393e-01</leafValues></_>
    <_>
      <internalNodes>
        0 -1 36542 -5.2809314802289009e-03</internalNodes>
      <leafValues>
        6.7370861768722534e-01 -3.3499754965305328e-02</leafValues></_>
    <_>
      <internalNodes>
        0 -1 103746 1.5285979956388474e-02</internalNodes>
      <leafValues>
        -2.7961347252130508e-02 6.7882835865020752e-01</leafValues></_>
    <_>
      <internalNodes>
        0 -1 14762 -9.9212741479277611e-03</internalNodes>
      <leafValues>
        5.4411172866821289e-01 -3.8592204451560974e-02</leafValues></_>
    <_>
      <internalNodes>
        0 -1 18087 1.6003724187612534e-02</internalNodes>
      <leafValues>
        -1.0396817326545715e-01 2.2345329821109772e-01</leafValues></_>
    <_>
      <internalNodes>
        0 -1 53017 3.8982708007097244e-02</internalNodes>
      <leafValues>
        3.6801252514123917e-02 -6.2692898511886597e-01</leafValues></_>
    <_>
      <internalNodes>
        0 -1 120921 -1.0796776041388512e-03</internalNodes>
      <leafValues>
        1.8338263034820557e-01 -1.4420089125633240e-01</leafValues></_>
    <_>
      <internalNodes>
        0 -1 124070 2.2486433386802673e-02</internalNodes>
      <leafValues>
        4.7114677727222443e-02 -5.6259638071060181e-01</leafValues></_>
    <_>
      <internalNodes>
        0 -1 46692 -2.3475824491470121e-05</internalNodes>
      <leafValues>
        1.6159467399120331e-01 -1.5622864663600922e-01</leafValues></_>
    <_>
      <internalNodes>
        0 -1 65921 -6.1343365814536810e-04</internalNodes>
      <leafValues>
        -2.3319402337074280e-01 1.1071482300758362e-01</leafValues></_>
    <_>
      <internalNodes>
        0 -1 20121 9.2667620629072189e-04</internalNodes>
      <leafValues>
        -1.5916067361831665e-01 1.7265062034130096e-01</leafValues></_>
    <_>
      <internalNodes>
        0 -1 38479 -3.3070296049118042e-03</internalNodes>
      <leafValues>
        2.3925633728504181e-01 -1.1211814731359482e-01</leafValues></_>
    <_>
      <internalNodes>
        0 -1 123799 4.9911241512745619e-04</internalNodes>
      <leafValues>
        7.7954269945621490e-02 -3.2494544982910156e-01</leafValues></_>
    <_>
      <internalNodes>
        0 -1 118440 -9.9539896473288536e-04</internalNodes>
      <leafValues>
        2.2513414919376373e-01 -1.1502467095851898e-01</leafValues></_>
    <_>
      <internalNodes>
        0 -1 118440 1.6518964548595250e-04</internalNodes>
      <leafValues>
        -1.8475143611431122e-01 1.8028415739536285e-01</leafValues></_>
    <_>
      <internalNodes>
        0 -1 105628 1.0558445937931538e-02</internalNodes>
      <leafValues>
        5.6438967585563660e-02 -4.3134909868240356e-01</leafValues></_>
    <_>
      <internalNodes>
        0 -1 54916 -6.4487485215067863e-03</internalNodes>
      <leafValues>
        1.9195197522640228e-01 -1.3035297393798828e-01</leafValues></_>
    <_>
      <internalNodes>
        0 -1 60029 -6.8262457847595215e-02</internalNodes>
      <leafValues>
        2.3289036750793457e-01 -1.0060670971870422e-01</leafValues></_></weakClassifiers></stage12>
</opencv_storage>
