<?xml version="1.0"?>
<opencv_storage>
<stage33>
  <maxWeakCount>84</maxWeakCount>
  <stageThreshold>-7.8148585557937622e-01</stageThreshold>
  <weakClassifiers>
    <_>
      <internalNodes>
        0 -1 977 -4.7336501302197576e-04</internalNodes>
      <leafValues>
        -4.5901637524366379e-02 2.9497206211090088e-01</leafValues></_>
    <_>
      <internalNodes>
        0 -1 1079 4.2376061901450157e-03</internalNodes>
      <leafValues>
        -9.3031540513038635e-02 2.5281724333763123e-01</leafValues></_>
    <_>
      <internalNodes>
        0 -1 106168 -1.4994103461503983e-02</internalNodes>
      <leafValues>
        -5.0773406028747559e-01 4.7144975513219833e-02</leafValues></_>
    <_>
      <internalNodes>
        0 -1 73448 -6.4208790659904480e-02</internalNodes>
      <leafValues>
        3.5007745027542114e-01 -6.4312636852264404e-02</leafValues></_>
    <_>
      <internalNodes>
        0 -1 105608 -3.8399517070502043e-03</internalNodes>
      <leafValues>
        6.6337221860885620e-01 -4.1196919977664948e-02</leafValues></_>
    <_>
      <internalNodes>
        0 -1 124379 1.9254788639955223e-04</internalNodes>
      <leafValues>
        8.3479195833206177e-02 -2.3219092190265656e-01</leafValues></_>
    <_>
      <internalNodes>
        0 -1 124405 -1.9893073476850986e-03</internalNodes>
      <leafValues>
        -1.9487701356410980e-01 1.0002546012401581e-01</leafValues></_>
    <_>
      <internalNodes>
        0 -1 124547 -3.1089994590729475e-03</internalNodes>
      <leafValues>
        1.8511696159839630e-01 -1.3086599111557007e-01</leafValues></_>
    <_>
      <internalNodes>
        0 -1 121283 1.0496566072106361e-02</internalNodes>
      <leafValues>
        -7.2734124958515167e-02 3.5484746098518372e-01</leafValues></_>
    <_>
      <internalNodes>
        0 -1 18813 4.2078876867890358e-03</internalNodes>
      <leafValues>
        -6.4669616520404816e-02 3.3475252985954285e-01</leafValues></_>
    <_>
      <internalNodes>
        0 -1 114587 -1.2723840773105621e-02</internalNodes>
      <leafValues>
        -3.8980072736740112e-01 5.4932430386543274e-02</leafValues></_>
    <_>
      <internalNodes>
        0 -1 13663 -4.8448733985424042e-02</internalNodes>
      <leafValues>
        4.5988592505455017e-01 -4.8058375716209412e-02</leafValues></_>
    <_>
      <internalNodes>
        0 -1 53044 3.3086360781453550e-04</internalNodes>
      <leafValues>
        -1.1012194305658340e-01 1.7695106565952301e-01</leafValues></_>
    <_>
      <internalNodes>
        0 -1 71248 -1.7753949761390686e-01</internalNodes>
      <leafValues>
        -7.3171484470367432e-01 3.6328759044408798e-02</leafValues></_>
    <_>
      <internalNodes>
        0 -1 62505 -4.7627715393900871e-03</internalNodes>
      <leafValues>
        -2.0515801012516022e-01 9.6104554831981659e-02</leafValues></_>
    <_>
      <internalNodes>
        0 -1 56609 -1.7554808437125757e-05</internalNodes>
      <leafValues>
        1.4362964034080505e-01 -1.4132043719291687e-01</leafValues></_>
    <_>
      <internalNodes>
        0 -1 36914 7.8714201226830482e-03</internalNodes>
      <leafValues>
        4.7380596399307251e-02 -4.0130722522735596e-01</leafValues></_>
    <_>
      <internalNodes>
        0 -1 125026 1.5360046178102493e-02</internalNodes>
      <leafValues>
        -5.6265946477651596e-02 3.7125816941261292e-01</leafValues></_>
    <_>
      <internalNodes>
        0 -1 118035 4.2147792555624619e-05</internalNodes>
      <leafValues>
        -1.2198840826749802e-01 1.7126354575157166e-01</leafValues></_>
    <_>
      <internalNodes>
        0 -1 102544 2.7166090440005064e-03</internalNodes>
      <leafValues>
        -9.1688483953475952e-02 2.3264913260936737e-01</leafValues></_>
    <_>
      <internalNodes>
        0 -1 105522 4.1936352499760687e-04</internalNodes>
      <leafValues>
        -1.1083730310201645e-01 2.1611477434635162e-01</leafValues></_>
    <_>
      <internalNodes>
        0 -1 87485 2.3750510066747665e-02</internalNodes>
      <leafValues>
        -3.2423865050077438e-02 6.4788323640823364e-01</leafValues></_>
    <_>
      <internalNodes>
        0 -1 99453 -1.8623428331920877e-05</internalNodes>
      <leafValues>
        1.7176577448844910e-01 -1.2552668154239655e-01</leafValues></_>
    <_>
      <internalNodes>
        0 -1 4387 7.6859463006258011e-03</internalNodes>
      <leafValues>
        -6.4116269350051880e-02 3.5757902264595032e-01</leafValues></_>
    <_>
      <internalNodes>
        0 -1 86929 -3.5578143433667719e-04</internalNodes>
      <leafValues>
        -2.5959637761116028e-01 8.7677642703056335e-02</leafValues></_>
    <_>
      <internalNodes>
        0 -1 35545 -1.9644502550363541e-02</internalNodes>
      <leafValues>
        7.0715832710266113e-01 -3.4503951668739319e-02</leafValues></_>
    <_>
      <internalNodes>
        0 -1 21798 3.4013651311397552e-03</internalNodes>
      <leafValues>
        -9.8511599004268646e-02 2.1029309928417206e-01</leafValues></_>
    <_>
      <internalNodes>
        0 -1 1883 3.3751686569303274e-03</internalNodes>
      <leafValues>
        -5.0091858953237534e-02 4.0589493513107300e-01</leafValues></_>
    <_>
      <internalNodes>
        0 -1 6954 6.6169269848614931e-04</internalNodes>
      <leafValues>
        9.8134689033031464e-02 -2.2553272545337677e-01</leafValues></_>
    <_>
      <internalNodes>
        0 -1 10280 3.2841224223375320e-02</internalNodes>
      <leafValues>
        -1.1253513395786285e-01 2.0166809856891632e-01</leafValues></_>
    <_>
      <internalNodes>
        0 -1 63165 1.3303633313626051e-03</internalNodes>
      <leafValues>
        -1.2614481151103973e-01 1.7433908581733704e-01</leafValues></_>
    <_>
      <internalNodes>
        0 -1 119287 -1.9369943765923381e-04</internalNodes>
      <leafValues>
        -1.9723142683506012e-01 1.1146891117095947e-01</leafValues></_>
    <_>
      <internalNodes>
        0 -1 118761 -1.7387396655976772e-03</internalNodes>
      <leafValues>
        2.3439274728298187e-01 -9.9836252629756927e-02</leafValues></_>
    <_>
      <internalNodes>
        0 -1 103373 -8.2897413522005081e-03</internalNodes>
      <leafValues>
        6.8614792823791504e-01 -2.6851046830415726e-02</leafValues></_>
    <_>
      <internalNodes>
        0 -1 90322 -5.2094068378210068e-03</internalNodes>
      <leafValues>
        -3.2426798343658447e-01 6.8536795675754547e-02</leafValues></_>
    <_>
      <internalNodes>
        0 -1 7024 -2.9703749343752861e-02</internalNodes>
      <leafValues>
        -4.0943601727485657e-01 4.8820417374372482e-02</leafValues></_>
    <_>
      <internalNodes>
        0 -1 846 1.9775968044996262e-02</internalNodes>
      <leafValues>
        1.0055109858512878e-01 -2.1522687375545502e-01</leafValues></_>
    <_>
      <internalNodes>
        0 -1 8991 8.0715268850326538e-03</internalNodes>
      <leafValues>
        -1.1340985447168350e-01 1.9516448676586151e-01</leafValues></_>
    <_>
      <internalNodes>
        0 -1 122661 -4.9651615321636200e-02</internalNodes>
      <leafValues>
        -8.7164026498794556e-01 2.9061369597911835e-02</leafValues></_>
    <_>
      <internalNodes>
        0 -1 123503 -1.0112570598721504e-02</internalNodes>
      <leafValues>
        2.9505771398544312e-01 -8.1283584237098694e-02</leafValues></_>
    <_>
      <internalNodes>
        0 -1 10873 2.0875493064522743e-03</internalNodes>
      <leafValues>
        5.1165223121643066e-02 -4.3753913044929504e-01</leafValues></_>
    <_>
      <internalNodes>
        0 -1 55772 -1.9183902069926262e-02</internalNodes>
      <leafValues>
        6.4867460727691650e-01 -3.6821730434894562e-02</leafValues></_>
    <_>
      <internalNodes>
        0 -1 47266 2.0259190350770950e-02</internalNodes>
      <leafValues>
        5.1864158362150192e-02 -4.7025829553604126e-01</leafValues></_>
    <_>
      <internalNodes>
        0 -1 2766 2.1442782599478960e-03</internalNodes>
      <leafValues>
        4.2964413762092590e-02 -4.5194435119628906e-01</leafValues></_>
    <_>
      <internalNodes>
        0 -1 53795 -5.0159106031060219e-03</internalNodes>
      <leafValues>
        2.4664092063903809e-01 -8.8622935116291046e-02</leafValues></_>
    <_>
      <internalNodes>
        0 -1 124498 -1.7062195111066103e-03</internalNodes>
      <leafValues>
        -2.6468864083290100e-01 8.4179103374481201e-02</leafValues></_>
    <_>
      <internalNodes>
        0 -1 720 -7.3041841387748718e-02</internalNodes>
      <leafValues>
        -6.3297706842422485e-01 3.6065690219402313e-02</leafValues></_>
    <_>
      <internalNodes>
        0 -1 19365 4.1427998803555965e-03</internalNodes>
      <leafValues>
        -6.8318516016006470e-02 3.3820456266403198e-01</leafValues></_>
    <_>
      <internalNodes>
        0 -1 19404 9.6941762603819370e-04</internalNodes>
      <leafValues>
        -1.1183768510818481e-01 1.9881311058998108e-01</leafValues></_>
    <_>
      <internalNodes>
        0 -1 19484 -2.1567661315202713e-02</internalNodes>
      <leafValues>
        -6.4768630266189575e-01 3.3995732665061951e-02</leafValues></_>
    <_>
      <internalNodes>
        0 -1 116495 4.7125451965257525e-04</internalNodes>
      <leafValues>
        7.4561573565006256e-02 -2.8837278485298157e-01</leafValues></_>
    <_>
      <internalNodes>
        0 -1 19027 -1.0109413415193558e-04</internalNodes>
      <leafValues>
        1.6487905383110046e-01 -1.3598223030567169e-01</leafValues></_>
    <_>
      <internalNodes>
        0 -1 112138 9.2461138963699341e-02</internalNodes>
      <leafValues>
        -3.0759166926145554e-02 7.6086103916168213e-01</leafValues></_>
    <_>
      <internalNodes>
        0 -1 112067 -1.1199699714779854e-02</internalNodes>
      <leafValues>
        3.4222272038459778e-01 -6.6195763647556305e-02</leafValues></_>
    <_>
      <internalNodes>
        0 -1 124803 3.2165059819817543e-03</internalNodes>
      <leafValues>
        4.3228816241025925e-02 -5.8784592151641846e-01</leafValues></_>
    <_>
      <internalNodes>
        0 -1 37879 1.1758757755160332e-02</internalNodes>
      <leafValues>
        -3.7148755043745041e-02 6.8732953071594238e-01</leafValues></_>
    <_>
      <internalNodes>
        0 -1 36953 2.3943185806274414e-02</internalNodes>
      <leafValues>
        6.3863068819046021e-02 -3.8314941525459290e-01</leafValues></_>
    <_>
      <internalNodes>
        0 -1 45777 3.4485957585275173e-03</internalNodes>
      <leafValues>
        -5.9257481247186661e-02 3.9022988080978394e-01</leafValues></_>
    <_>
      <internalNodes>
        0 -1 124955 -3.0695251189172268e-04</internalNodes>
      <leafValues>
        1.7051023244857788e-01 -1.2848365306854248e-01</leafValues></_>
    <_>
      <internalNodes>
        0 -1 38083 -1.5001704450696707e-03</internalNodes>
      <leafValues>
        1.7813254892826080e-01 -1.2991678714752197e-01</leafValues></_>
    <_>
      <internalNodes>
        0 -1 19800 1.7398331314325333e-02</internalNodes>
      <leafValues>
        -1.3056932389736176e-01 1.7404252290725708e-01</leafValues></_>
    <_>
      <internalNodes>
        0 -1 14012 1.6978794708848000e-02</internalNodes>
      <leafValues>
        1.2186419218778610e-01 -1.9942975044250488e-01</leafValues></_>
    <_>
      <internalNodes>
        0 -1 69561 -3.5777287557721138e-03</internalNodes>
      <leafValues>
        1.8661093711853027e-01 -1.2128596752882004e-01</leafValues></_>
    <_>
      <internalNodes>
        0 -1 100107 -3.8335300981998444e-02</internalNodes>
      <leafValues>
        -3.1638777256011963e-01 7.8612297773361206e-02</leafValues></_>
    <_>
      <internalNodes>
        0 -1 50678 -1.5612614806741476e-03</internalNodes>
      <leafValues>
        2.0183204114437103e-01 -1.2073594331741333e-01</leafValues></_>
    <_>
      <internalNodes>
        0 -1 82331 8.5585013031959534e-02</internalNodes>
      <leafValues>
        3.2324757426977158e-02 -7.6860445737838745e-01</leafValues></_>
    <_>
      <internalNodes>
        0 -1 74368 -3.1093978323042393e-03</internalNodes>
      <leafValues>
        4.2386785149574280e-01 -5.4945774376392365e-02</leafValues></_>
    <_>
      <internalNodes>
        0 -1 18809 -9.6891764551401138e-03</internalNodes>
      <leafValues>
        5.5601191520690918e-01 -3.7575043737888336e-02</leafValues></_>
    <_>
      <internalNodes>
        0 -1 103106 -5.5591300129890442e-02</internalNodes>
      <leafValues>
        3.5116666555404663e-01 -5.5587653070688248e-02</leafValues></_>
    <_>
      <internalNodes>
        0 -1 113870 3.4972183406352997e-02</internalNodes>
      <leafValues>
        -5.3173895925283432e-02 3.8128194212913513e-01</leafValues></_>
    <_>
      <internalNodes>
        0 -1 118393 -1.8150115385651588e-02</internalNodes>
      <leafValues>
        -7.0636731386184692e-01 3.5006150603294373e-02</leafValues></_>
    <_>
      <internalNodes>
        0 -1 122876 2.8069114778190851e-03</internalNodes>
      <leafValues>
        6.3306368887424469e-02 -2.9951411485671997e-01</leafValues></_>
    <_>
      <internalNodes>
        0 -1 79430 -7.4794446118175983e-03</internalNodes>
      <leafValues>
        -5.9643787145614624e-01 3.6291152238845825e-02</leafValues></_>
    <_>
      <internalNodes>
        0 -1 113534 -1.2261457741260529e-02</internalNodes>
      <leafValues>
        6.0872501134872437e-01 -3.8994852453470230e-02</leafValues></_>
    <_>
      <internalNodes>
        0 -1 122117 2.2771323565393686e-03</internalNodes>
      <leafValues>
        7.9977169632911682e-02 -2.8058981895446777e-01</leafValues></_>
    <_>
      <internalNodes>
        0 -1 105659 9.5359794795513153e-04</internalNodes>
      <leafValues>
        -1.0489143431186676e-01 2.0830726623535156e-01</leafValues></_>
    <_>
      <internalNodes>
        0 -1 96517 -1.8132182594854385e-04</internalNodes>
      <leafValues>
        -1.9497245550155640e-01 1.2292224168777466e-01</leafValues></_>
    <_>
      <internalNodes>
        0 -1 86624 1.1556568555533886e-02</internalNodes>
      <leafValues>
        -3.0511559918522835e-02 6.9506353139877319e-01</leafValues></_>
    <_>
      <internalNodes>
        0 -1 2787 -9.1845514252781868e-03</internalNodes>
      <leafValues>
        6.0001033544540405e-01 -3.3316545188426971e-02</leafValues></_>
    <_>
      <internalNodes>
        0 -1 123343 -4.2795762419700623e-02</internalNodes>
      <leafValues>
        -8.3611023426055908e-01 2.8257314115762711e-02</leafValues></_>
    <_>
      <internalNodes>
        0 -1 87174 1.4748802408576012e-02</internalNodes>
      <leafValues>
        9.7150243818759918e-02 -2.2783531248569489e-01</leafValues></_>
    <_>
      <internalNodes>
        0 -1 38278 1.0191539768129587e-03</internalNodes>
      <leafValues>
        -1.3996458053588867e-01 1.6565853357315063e-01</leafValues></_>
    <_>
      <internalNodes>
        0 -1 73110 -4.6358127146959305e-03</internalNodes>
      <leafValues>
        2.0124720036983490e-01 -1.1631619185209274e-01</leafValues></_>
    <_>
      <internalNodes>
        0 -1 104890 -8.9926249347627163e-04</internalNodes>
      <leafValues>
        1.9064910709857941e-01 -1.2042205780744553e-01</leafValues></_></weakClassifiers></stage33>
</opencv_storage>
