<?xml version="1.0"?>
<opencv_storage>
<stage10>
  <maxWeakCount>41</maxWeakCount>
  <stageThreshold>-1.1853784322738647e+00</stageThreshold>
  <weakClassifiers>
    <_>
      <internalNodes>
        0 -1 35445 3.0146438628435135e-02</internalNodes>
      <leafValues>
        -4.1553243994712830e-01 3.7254902720451355e-01</leafValues></_>
    <_>
      <internalNodes>
        0 -1 43585 -3.2167793251574039e-03</internalNodes>
      <leafValues>
        2.0033444464206696e-01 -1.7277331650257111e-01</leafValues></_>
    <_>
      <internalNodes>
        0 -1 24106 -1.7963945865631104e-02</internalNodes>
      <leafValues>
        -3.7981292605400085e-01 8.7967850267887115e-02</leafValues></_>
    <_>
      <internalNodes>
        0 -1 93380 -5.0979019142687321e-03</internalNodes>
      <leafValues>
        5.3965175151824951e-01 -4.8513412475585938e-02</leafValues></_>
    <_>
      <internalNodes>
        0 -1 123615 -7.3884427547454834e-03</internalNodes>
      <leafValues>
        2.7954113483428955e-01 -1.1250378191471100e-01</leafValues></_>
    <_>
      <internalNodes>
        0 -1 66413 -2.0599257550202310e-04</internalNodes>
      <leafValues>
        -2.9340448975563049e-01 1.0892388224601746e-01</leafValues></_>
    <_>
      <internalNodes>
        0 -1 31641 -8.1391092389822006e-03</internalNodes>
      <leafValues>
        3.1654977798461914e-01 -9.8141886293888092e-02</leafValues></_>
    <_>
      <internalNodes>
        0 -1 37758 -4.3162718415260315e-02</internalNodes>
      <leafValues>
        2.9435357451438904e-01 -1.0113549977540970e-01</leafValues></_>
    <_>
      <internalNodes>
        0 -1 123684 7.7491474803537130e-04</internalNodes>
      <leafValues>
        6.5146200358867645e-02 -4.4800248742103577e-01</leafValues></_>
    <_>
      <internalNodes>
        0 -1 38922 1.6847974620759487e-03</internalNodes>
      <leafValues>
        -1.5613667666912079e-01 2.1237409114837646e-01</leafValues></_>
    <_>
      <internalNodes>
        0 -1 64949 2.1082899183966219e-04</internalNodes>
      <leafValues>
        1.2484744191169739e-01 -3.0280405282974243e-01</leafValues></_>
    <_>
      <internalNodes>
        0 -1 54807 -5.0183115527033806e-03</internalNodes>
      <leafValues>
        5.6754201650619507e-01 -5.9495124965906143e-02</leafValues></_>
    <_>
      <internalNodes>
        0 -1 86466 1.1080431751906872e-02</internalNodes>
      <leafValues>
        6.0348808765411377e-02 -4.8975083231925964e-01</leafValues></_>
    <_>
      <internalNodes>
        0 -1 91127 1.1576347053050995e-02</internalNodes>
      <leafValues>
        -9.0119481086730957e-02 3.4160014986991882e-01</leafValues></_>
    <_>
      <internalNodes>
        0 -1 70761 -4.2453682981431484e-03</internalNodes>
      <leafValues>
        2.9273867607116699e-01 -1.3833145797252655e-01</leafValues></_>
    <_>
      <internalNodes>
        0 -1 125189 -2.3453538306057453e-03</internalNodes>
      <leafValues>
        -5.4994648694992065e-01 5.6470576673746109e-02</leafValues></_>
    <_>
      <internalNodes>
        0 -1 122365 5.2207345142960548e-03</internalNodes>
      <leafValues>
        -1.2811662256717682e-01 2.3766423761844635e-01</leafValues></_>
    <_>
      <internalNodes>
        0 -1 116831 -6.7150802351534367e-03</internalNodes>
      <leafValues>
        -3.9123886823654175e-01 8.5872791707515717e-02</leafValues></_>
    <_>
      <internalNodes>
        0 -1 109349 -6.0994829982519150e-04</internalNodes>
      <leafValues>
        2.4981360137462616e-01 -1.2335501611232758e-01</leafValues></_>
    <_>
      <internalNodes>
        0 -1 57875 -2.1351195871829987e-02</internalNodes>
      <leafValues>
        -6.8435120582580566e-01 4.6601459383964539e-02</leafValues></_>
    <_>
      <internalNodes>
        0 -1 11187 -1.1665290221571922e-02</internalNodes>
      <leafValues>
        2.5977462530136108e-01 -1.2817277014255524e-01</leafValues></_>
    <_>
      <internalNodes>
        0 -1 19584 -1.9014738500118256e-02</internalNodes>
      <leafValues>
        3.2793840765953064e-01 -1.1982344835996628e-01</leafValues></_>
    <_>
      <internalNodes>
        0 -1 4446 9.4094648957252502e-03</internalNodes>
      <leafValues>
        -1.0217888653278351e-01 3.4314209222793579e-01</leafValues></_>
    <_>
      <internalNodes>
        0 -1 24240 6.7563680931925774e-04</internalNodes>
      <leafValues>
        9.3474075198173523e-02 -3.6057868599891663e-01</leafValues></_>
    <_>
      <internalNodes>
        0 -1 111697 -6.3280848553404212e-04</internalNodes>
      <leafValues>
        -3.6480969190597534e-01 8.5714928805828094e-02</leafValues></_>
    <_>
      <internalNodes>
        0 -1 124804 1.4173674862831831e-03</internalNodes>
      <leafValues>
        7.2179190814495087e-02 -4.6451294422149658e-01</leafValues></_>
    <_>
      <internalNodes>
        0 -1 46414 -1.1375191388651729e-04</internalNodes>
      <leafValues>
        1.9214175641536713e-01 -1.8707300722599030e-01</leafValues></_>
    <_>
      <internalNodes>
        0 -1 121547 3.5227763000875711e-03</internalNodes>
      <leafValues>
        -1.5605503320693970e-01 2.0978277921676636e-01</leafValues></_>
    <_>
      <internalNodes>
        0 -1 118994 1.1721164919435978e-03</internalNodes>
      <leafValues>
        8.1753700971603394e-02 -4.3738770484924316e-01</leafValues></_>
    <_>
      <internalNodes>
        0 -1 90379 -4.8734634183347225e-03</internalNodes>
      <leafValues>
        3.5273197293281555e-01 -1.0819617658853531e-01</leafValues></_>
    <_>
      <internalNodes>
        0 -1 36613 -8.2864398136734962e-03</internalNodes>
      <leafValues>
        -3.6460027098655701e-01 9.6690684556961060e-02</leafValues></_>
    <_>
      <internalNodes>
        0 -1 121694 -1.1663753539323807e-02</internalNodes>
      <leafValues>
        4.8061433434486389e-01 -7.6331205666065216e-02</leafValues></_>
    <_>
      <internalNodes>
        0 -1 104638 7.7594327740371227e-04</internalNodes>
      <leafValues>
        -1.0822615772485733e-01 2.8748366236686707e-01</leafValues></_>
    <_>
      <internalNodes>
        0 -1 24253 -2.5650882162153721e-03</internalNodes>
      <leafValues>
        -3.4569811820983887e-01 1.0270951688289642e-01</leafValues></_>
    <_>
      <internalNodes>
        0 -1 14974 1.3856193050742149e-02</internalNodes>
      <leafValues>
        6.3033379614353180e-02 -4.5839777588844299e-01</leafValues></_>
    <_>
      <internalNodes>
        0 -1 116882 6.6283061169087887e-03</internalNodes>
      <leafValues>
        6.6118516027927399e-02 -4.2940694093704224e-01</leafValues></_>
    <_>
      <internalNodes>
        0 -1 9060 8.6457462748512626e-04</internalNodes>
      <leafValues>
        -1.3512142002582550e-01 2.4226489663124084e-01</leafValues></_>
    <_>
      <internalNodes>
        0 -1 109966 6.4435121603310108e-03</internalNodes>
      <leafValues>
        7.6792761683464050e-02 -4.0947234630584717e-01</leafValues></_>
    <_>
      <internalNodes>
        0 -1 298 -1.4468276873230934e-02</internalNodes>
      <leafValues>
        3.1868478655815125e-01 -1.1021406203508377e-01</leafValues></_>
    <_>
      <internalNodes>
        0 -1 0 -1.3661794364452362e-03</internalNodes>
      <leafValues>
        -6.8527197837829590e-01 5.5980522185564041e-02</leafValues></_>
    <_>
      <internalNodes>
        0 -1 85204 1.1017455253750086e-03</internalNodes>
      <leafValues>
        -1.6657456755638123e-01 2.2348485887050629e-01</leafValues></_></weakClassifiers></stage10>
</opencv_storage>
