<?xml version="1.0"?>
<opencv_storage>
<stage9>
  <maxWeakCount>84</maxWeakCount>
  <stageThreshold>-1.2556165456771851e+00</stageThreshold>
  <weakClassifiers>
    <_>
      <internalNodes>
        0 -1 5081 6.6042430698871613e-03</internalNodes>
      <leafValues>
        -1.8039482831954956e-01 4.9618321657180786e-01</leafValues></_>
    <_>
      <internalNodes>
        0 -1 5081 6.3067609444260597e-03</internalNodes>
      <leafValues>
        1.8078307621181011e-03 -9.6141320466995239e-01</leafValues></_>
    <_>
      <internalNodes>
        0 -1 5081 6.0925320722162724e-03</internalNodes>
      <leafValues>
        -3.5947051364928484e-03 9.8992228507995605e-01</leafValues></_>
    <_>
      <internalNodes>
        0 -1 5081 5.9177670627832413e-03</internalNodes>
      <leafValues>
        5.2723921835422516e-03 -9.6835017204284668e-01</leafValues></_>
    <_>
      <internalNodes>
        0 -1 5081 5.7779261842370033e-03</internalNodes>
      <leafValues>
        -2.7776849456131458e-03 9.7986322641372681e-01</leafValues></_>
    <_>
      <internalNodes>
        0 -1 5081 5.7061389088630676e-03</internalNodes>
      <leafValues>
        1.1806304100900888e-03 -9.7060215473175049e-01</leafValues></_>
    <_>
      <internalNodes>
        0 -1 5081 5.6607322767376900e-03</internalNodes>
      <leafValues>
        -1.6920468769967556e-03 9.7978085279464722e-01</leafValues></_>
    <_>
      <internalNodes>
        0 -1 5081 5.5873431265354156e-03</internalNodes>
      <leafValues>
        1.7761973431333899e-03 -9.7201675176620483e-01</leafValues></_>
    <_>
      <internalNodes>
        0 -1 5081 5.5263964459300041e-03</internalNodes>
      <leafValues>
        -2.5488510727882385e-03 9.7989755868911743e-01</leafValues></_>
    <_>
      <internalNodes>
        0 -1 5081 5.4843714460730553e-03</internalNodes>
      <leafValues>
        1.1876429198309779e-03 -9.7299712896347046e-01</leafValues></_>
    <_>
      <internalNodes>
        0 -1 5081 5.4427227005362511e-03</internalNodes>
      <leafValues>
        -1.7064841231331229e-03 9.7990381717681885e-01</leafValues></_>
    <_>
      <internalNodes>
        0 -1 5081 5.4268636740744114e-03</internalNodes>
      <leafValues>
        5.9488235274329782e-04 -9.7362345457077026e-01</leafValues></_>
    <_>
      <internalNodes>
        0 -1 5081 5.3877215832471848e-03</internalNodes>
      <leafValues>
        -2.8349447529762983e-03 9.7087424993515015e-01</leafValues></_>
    <_>
      <internalNodes>
        0 -1 5081 5.3471401333808899e-03</internalNodes>
      <leafValues>
        1.7910371534526348e-03 -9.7463476657867432e-01</leafValues></_>
    <_>
      <internalNodes>
        0 -1 5081 5.3260941058397293e-03</internalNodes>
      <leafValues>
        -1.7241360619664192e-03 9.8061543703079224e-01</leafValues></_>
    <_>
      <internalNodes>
        0 -1 5081 5.3029819391667843e-03</internalNodes>
      <leafValues>
        1.1976030655205250e-03 -9.7561526298522949e-01</leafValues></_>
    <_>
      <internalNodes>
        0 -1 5081 5.2669858559966087e-03</internalNodes>
      <leafValues>
        -1.7301032785326242e-03 9.7157245874404907e-01</leafValues></_>
    <_>
      <internalNodes>
        0 -1 5081 5.2290796302258968e-03</internalNodes>
      <leafValues>
        1.2004785239696503e-03 -9.7542124986648560e-01</leafValues></_>
    <_>
      <internalNodes>
        0 -1 5081 5.1944544538855553e-03</internalNodes>
      <leafValues>
        -8.6730212206020951e-04 9.8095506429672241e-01</leafValues></_>
    <_>
      <internalNodes>
        0 -1 5081 5.1702605560421944e-03</internalNodes>
      <leafValues>
        6.0132268117740750e-04 -9.7633153200149536e-01</leafValues></_>
    <_>
      <internalNodes>
        0 -1 5081 5.1501891575753689e-03</internalNodes>
      <leafValues>
        -8.6880964227020741e-04 9.7189992666244507e-01</leafValues></_>
    <_>
      <internalNodes>
        0 -1 5081 5.1023913547396660e-03</internalNodes>
      <leafValues>
        2.4125450290739536e-03 -9.7633445262908936e-01</leafValues></_>
    <_>
      <internalNodes>
        0 -1 5081 5.0846561789512634e-03</internalNodes>
      <leafValues>
        -8.7031733710318804e-04 9.8119556903839111e-01</leafValues></_>
    <_>
      <internalNodes>
        0 -1 5081 5.0040106289088726e-03</internalNodes>
      <leafValues>
        1.8170803086832166e-03 -9.7754204273223877e-01</leafValues></_>
    <_>
      <internalNodes>
        0 -1 5081 4.5149680227041245e-03</internalNodes>
      <leafValues>
        -9.0209040790796280e-03 9.4200420379638672e-01</leafValues></_>
    <_>
      <internalNodes>
        0 -1 5081 4.4342381879687309e-03</internalNodes>
      <leafValues>
        2.4447431787848473e-03 -9.7855579853057861e-01</leafValues></_>
    <_>
      <internalNodes>
        0 -1 5081 4.1460664942860603e-03</internalNodes>
      <leafValues>
        -6.5682316198945045e-03 9.7692281007766724e-01</leafValues></_>
    <_>
      <internalNodes>
        0 -1 124804 1.6553483437746763e-03</internalNodes>
      <leafValues>
        2.6968101039528847e-02 -5.4576110839843750e-01</leafValues></_>
    <_>
      <internalNodes>
        0 -1 976 4.2773212044266984e-05</internalNodes>
      <leafValues>
        -1.7704516649246216e-01 1.7193154990673065e-01</leafValues></_>
    <_>
      <internalNodes>
        0 -1 55 -3.4030601382255554e-03</internalNodes>
      <leafValues>
        2.9087764024734497e-01 -1.2541259825229645e-01</leafValues></_>
    <_>
      <internalNodes>
        0 -1 124804 4.3341809941921383e-05</internalNodes>
      <leafValues>
        -1.5016897022724152e-01 2.4241827428340912e-01</leafValues></_>
    <_>
      <internalNodes>
        0 -1 86239 3.9302706718444824e-03</internalNodes>
      <leafValues>
        -1.0391175746917725e-01 4.6580454707145691e-01</leafValues></_>
    <_>
      <internalNodes>
        0 -1 1901 6.0203246539458632e-04</internalNodes>
      <leafValues>
        -1.5315145254135132e-01 2.2034022212028503e-01</leafValues></_>
    <_>
      <internalNodes>
        0 -1 9949 1.0935782920569181e-03</internalNodes>
      <leafValues>
        1.1528124660253525e-01 -4.3511614203453064e-01</leafValues></_>
    <_>
      <internalNodes>
        0 -1 99284 -3.9602392353117466e-03</internalNodes>
      <leafValues>
        5.4692131280899048e-01 -8.9756585657596588e-02</leafValues></_>
    <_>
      <internalNodes>
        0 -1 79824 -3.1943172216415405e-02</internalNodes>
      <leafValues>
        -4.9857190251350403e-01 6.7401848733425140e-02</leafValues></_>
    <_>
      <internalNodes>
        0 -1 152 -3.6132819950580597e-02</internalNodes>
      <leafValues>
        5.5775469541549683e-01 -4.9494992941617966e-02</leafValues></_>
    <_>
      <internalNodes>
        0 -1 5731 9.6190124750137329e-02</internalNodes>
      <leafValues>
        4.7921199351549149e-02 -5.8367580175399780e-01</leafValues></_>
    <_>
      <internalNodes>
        0 -1 120198 5.2008967846632004e-02</internalNodes>
      <leafValues>
        -7.3754690587520599e-02 4.1530016064643860e-01</leafValues></_>
    <_>
      <internalNodes>
        0 -1 93035 -4.5383643737295642e-05</internalNodes>
      <leafValues>
        1.8558683991432190e-01 -1.6451705992221832e-01</leafValues></_>
    <_>
      <internalNodes>
        0 -1 45048 -3.5687200725078583e-02</internalNodes>
      <leafValues>
        -4.3934810161590576e-01 7.2493374347686768e-02</leafValues></_>
    <_>
      <internalNodes>
        0 -1 123874 -1.1887987144291401e-02</internalNodes>
      <leafValues>
        3.5855841636657715e-01 -8.0055676400661469e-02</leafValues></_>
    <_>
      <internalNodes>
        0 -1 85409 -1.1132092215120792e-02</internalNodes>
      <leafValues>
        7.3596554994583130e-01 -4.8230320215225220e-02</leafValues></_>
    <_>
      <internalNodes>
        0 -1 123410 -3.5250354558229446e-03</internalNodes>
      <leafValues>
        4.6561545133590698e-01 -6.0471683740615845e-02</leafValues></_>
    <_>
      <internalNodes>
        0 -1 124083 -1.8917329609394073e-02</internalNodes>
      <leafValues>
        -5.4261958599090576e-01 5.6388750672340393e-02</leafValues></_>
    <_>
      <internalNodes>
        0 -1 36993 2.0320415496826172e-03</internalNodes>
      <leafValues>
        -1.4581859111785889e-01 2.2116202116012573e-01</leafValues></_>
    <_>
      <internalNodes>
        0 -1 79803 1.7955202609300613e-02</internalNodes>
      <leafValues>
        6.2917627394199371e-02 -5.0080806016921997e-01</leafValues></_>
    <_>
      <internalNodes>
        0 -1 51634 3.7603295641019940e-04</internalNodes>
      <leafValues>
        9.8371535539627075e-02 -2.9215592145919800e-01</leafValues></_>
    <_>
      <internalNodes>
        0 -1 122740 -4.2908151954179630e-05</internalNodes>
      <leafValues>
        1.6449899971485138e-01 -1.7335966229438782e-01</leafValues></_>
    <_>
      <internalNodes>
        0 -1 122740 -9.0902013471350074e-04</internalNodes>
      <leafValues>
        -4.3161183595657349e-01 9.4024978578090668e-02</leafValues></_>
    <_>
      <internalNodes>
        0 -1 124802 1.9892735508619808e-05</internalNodes>
      <leafValues>
        -1.6300204396247864e-01 1.8048857152462006e-01</leafValues></_>
    <_>
      <internalNodes>
        0 -1 20302 -8.2168877124786377e-03</internalNodes>
      <leafValues>
        3.5745543241500854e-01 -7.5630009174346924e-02</leafValues></_>
    <_>
      <internalNodes>
        0 -1 766 3.4690797328948975e-03</internalNodes>
      <leafValues>
        -1.1237148940563202e-01 2.5360834598541260e-01</leafValues></_>
    <_>
      <internalNodes>
        0 -1 1748 1.5105964615941048e-02</internalNodes>
      <leafValues>
        6.3390843570232391e-02 -4.6455574035644531e-01</leafValues></_>
    <_>
      <internalNodes>
        0 -1 47405 -1.2072334066033363e-02</internalNodes>
      <leafValues>
        5.8999431133270264e-01 -5.5875606834888458e-02</leafValues></_>
    <_>
      <internalNodes>
        0 -1 38857 -9.8070735111832619e-04</internalNodes>
      <leafValues>
        -4.0715587139129639e-01 7.8511908650398254e-02</leafValues></_>
    <_>
      <internalNodes>
        0 -1 92799 -6.1524296179413795e-03</internalNodes>
      <leafValues>
        7.1036684513092041e-01 -4.4453289359807968e-02</leafValues></_>
    <_>
      <internalNodes>
        0 -1 84170 -3.4448741935193539e-03</internalNodes>
      <leafValues>
        5.6771445274353027e-01 -4.3369699269533157e-02</leafValues></_>
    <_>
      <internalNodes>
        0 -1 115938 -1.6738953490857966e-05</internalNodes>
      <leafValues>
        1.5477956831455231e-01 -1.7611853778362274e-01</leafValues></_>
    <_>
      <internalNodes>
        0 -1 121778 3.9739119820296764e-03</internalNodes>
      <leafValues>
        -7.5804896652698517e-02 3.2675585150718689e-01</leafValues></_>
    <_>
      <internalNodes>
        0 -1 120646 -2.9470107983797789e-03</internalNodes>
      <leafValues>
        -1.7598126828670502e-01 1.6437569260597229e-01</leafValues></_>
    <_>
      <internalNodes>
        0 -1 2768 -9.0211845235899091e-04</internalNodes>
      <leafValues>
        -3.0579206347465515e-01 9.0365715324878693e-02</leafValues></_>
    <_>
      <internalNodes>
        0 -1 6823 2.6285827159881592e-01</internalNodes>
      <leafValues>
        5.6322410702705383e-02 -4.9466064572334290e-01</leafValues></_>
    <_>
      <internalNodes>
        0 -1 663 -1.5817955136299133e-01</internalNodes>
      <leafValues>
        -4.0775963664054871e-01 7.1446500718593597e-02</leafValues></_>
    <_>
      <internalNodes>
        0 -1 97485 1.0678015649318695e-02</internalNodes>
      <leafValues>
        -6.0662642121315002e-02 5.1099085807800293e-01</leafValues></_>
    <_>
      <internalNodes>
        0 -1 61144 7.7771589159965515e-02</internalNodes>
      <leafValues>
        3.0223557725548744e-02 -8.9953047037124634e-01</leafValues></_>
    <_>
      <internalNodes>
        0 -1 76846 -4.7069406136870384e-03</internalNodes>
      <leafValues>
        5.7010620832443237e-01 -6.2088977545499802e-02</leafValues></_>
    <_>
      <internalNodes>
        0 -1 46692 -1.8592309206724167e-03</internalNodes>
      <leafValues>
        2.8336572647094727e-01 -1.0094787180423737e-01</leafValues></_>
    <_>
      <internalNodes>
        0 -1 54527 2.3591585457324982e-02</internalNodes>
      <leafValues>
        5.8837264776229858e-02 -6.5303903818130493e-01</leafValues></_>
    <_>
      <internalNodes>
        0 -1 86887 5.0383489578962326e-03</internalNodes>
      <leafValues>
        -4.7787319868803024e-02 8.2915008068084717e-01</leafValues></_>
    <_>
      <internalNodes>
        0 -1 124526 -1.9500521011650562e-03</internalNodes>
      <leafValues>
        -3.6118912696838379e-01 9.6050538122653961e-02</leafValues></_>
    <_>
      <internalNodes>
        0 -1 108809 -4.2410068999743089e-05</internalNodes>
      <leafValues>
        1.8061079084873199e-01 -1.6453605890274048e-01</leafValues></_>
    <_>
      <internalNodes>
        0 -1 116764 1.6171755269169807e-03</internalNodes>
      <leafValues>
        1.2017147988080978e-01 -3.2311654090881348e-01</leafValues></_>
    <_>
      <internalNodes>
        0 -1 118458 6.9138495018705726e-04</internalNodes>
      <leafValues>
        -1.5277417004108429e-01 2.1948808431625366e-01</leafValues></_>
    <_>
      <internalNodes>
        0 -1 165 7.0854034274816513e-03</internalNodes>
      <leafValues>
        -1.3837186992168427e-01 2.1440939605236053e-01</leafValues></_>
    <_>
      <internalNodes>
        0 -1 6387 6.5924338996410370e-03</internalNodes>
      <leafValues>
        -8.0582223832607269e-02 4.2508718371391296e-01</leafValues></_>
    <_>
      <internalNodes>
        0 -1 114938 1.3386797159910202e-02</internalNodes>
      <leafValues>
        4.3061368167400360e-02 -7.9196065664291382e-01</leafValues></_>
    <_>
      <internalNodes>
        0 -1 124741 -7.8249257057905197e-03</internalNodes>
      <leafValues>
        -3.4987217187881470e-01 8.1702508032321930e-02</leafValues></_>
    <_>
      <internalNodes>
        0 -1 123855 -5.2382368594408035e-03</internalNodes>
      <leafValues>
        2.5699314475059509e-01 -1.0982833802700043e-01</leafValues></_>
    <_>
      <internalNodes>
        0 -1 115274 7.3043629527091980e-04</internalNodes>
      <leafValues>
        7.8935787081718445e-02 -3.8220280408859253e-01</leafValues></_>
    <_>
      <internalNodes>
        0 -1 120426 2.2039212286472321e-02</internalNodes>
      <leafValues>
        -7.6989755034446716e-02 3.8775175809860229e-01</leafValues></_>
    <_>
      <internalNodes>
        0 -1 116180 -6.0210209339857101e-03</internalNodes>
      <leafValues>
        3.4358081221580505e-01 -8.6916826665401459e-02</leafValues></_>
    <_>
      <internalNodes>
        0 -1 110411 7.8728850930929184e-03</internalNodes>
      <leafValues>
        -9.5063954591751099e-02 2.9088005423545837e-01</leafValues></_>
    <_>
      <internalNodes>
        0 -1 105773 -9.8925065249204636e-03</internalNodes>
      <leafValues>
        3.1393441557884216e-01 -9.6224486827850342e-02</leafValues></_></weakClassifiers></stage9>
</opencv_storage>
