<?xml version="1.0"?>
<opencv_storage>
<stage47>
  <maxWeakCount>94</maxWeakCount>
  <stageThreshold>-8.2424056529998779e-01</stageThreshold>
  <weakClassifiers>
    <_>
      <internalNodes>
        0 -1 110739 -2.0694308914244175e-03</internalNodes>
      <leafValues>
        4.1289436817169189e-01 9.1918565332889557e-02</leafValues></_>
    <_>
      <internalNodes>
        0 -1 110389 4.2479801923036575e-03</internalNodes>
      <leafValues>
        -3.4996606409549713e-02 4.7940707206726074e-01</leafValues></_>
    <_>
      <internalNodes>
        0 -1 110389 4.2353617027401924e-03</internalNodes>
      <leafValues>
        1.0009661782532930e-03 -1.</leafValues></_>
    <_>
      <internalNodes>
        0 -1 110389 4.1959700174629688e-03</internalNodes>
      <leafValues>
        -7.8148051397874951e-04 9.4133853912353516e-01</leafValues></_>
    <_>
      <internalNodes>
        0 -1 110389 4.1559333913028240e-03</internalNodes>
      <leafValues>
        1.0173297487199306e-03 -1.</leafValues></_>
    <_>
      <internalNodes>
        0 -1 110389 4.1060624644160271e-03</internalNodes>
      <leafValues>
        -9.0736395213752985e-04 9.4804131984710693e-01</leafValues></_>
    <_>
      <internalNodes>
        0 -1 110389 4.0972069837152958e-03</internalNodes>
      <leafValues>
        1.0194038040935993e-03 -1.</leafValues></_>
    <_>
      <internalNodes>
        0 -1 110389 4.0454328991472721e-03</internalNodes>
      <leafValues>
        -7.8412663424387574e-04 9.5332658290863037e-01</leafValues></_>
    <_>
      <internalNodes>
        0 -1 110389 3.9737722836434841e-03</internalNodes>
      <leafValues>
        3.0044601298868656e-03 -9.7696465253829956e-01</leafValues></_>
    <_>
      <internalNodes>
        0 -1 110389 3.9653144776821136e-03</internalNodes>
      <leafValues>
        -4.5541921281255782e-04 9.5597255229949951e-01</leafValues></_>
    <_>
      <internalNodes>
        0 -1 110389 3.9413450285792351e-03</internalNodes>
      <leafValues>
        1.0285860626026988e-03 -9.7660738229751587e-01</leafValues></_>
    <_>
      <internalNodes>
        0 -1 110389 3.6218762397766113e-03</internalNodes>
      <leafValues>
        -6.6960905678570271e-03 9.2878198623657227e-01</leafValues></_>
    <_>
      <internalNodes>
        0 -1 45987 9.0621605515480042e-02</internalNodes>
      <leafValues>
        -1.6640748828649521e-02 8.4458929300308228e-01</leafValues></_>
    <_>
      <internalNodes>
        0 -1 37985 7.7199307270348072e-04</internalNodes>
      <leafValues>
        -9.9947914481163025e-02 1.8837034702301025e-01</leafValues></_>
    <_>
      <internalNodes>
        0 -1 111222 5.5042572319507599e-02</internalNodes>
      <leafValues>
        -3.8877282291650772e-02 4.6354195475578308e-01</leafValues></_>
    <_>
      <internalNodes>
        0 -1 115295 -1.2028416618704796e-02</internalNodes>
      <leafValues>
        1.9233563542366028e-01 -1.3022568821907043e-01</leafValues></_>
    <_>
      <internalNodes>
        0 -1 48180 1.9012743607163429e-02</internalNodes>
      <leafValues>
        5.9298012405633926e-02 -4.2675039172172546e-01</leafValues></_>
    <_>
      <internalNodes>
        0 -1 125178 -7.7430168166756630e-03</internalNodes>
      <leafValues>
        -3.3794960379600525e-01 6.7774675786495209e-02</leafValues></_>
    <_>
      <internalNodes>
        0 -1 47773 -3.9313703775405884e-02</internalNodes>
      <leafValues>
        4.7776165604591370e-01 -5.7706233114004135e-02</leafValues></_>
    <_>
      <internalNodes>
        0 -1 110408 9.2914747074246407e-03</internalNodes>
      <leafValues>
        4.1764095425605774e-02 -5.6716096401214600e-01</leafValues></_>
    <_>
      <internalNodes>
        0 -1 91870 -1.3808165676891804e-03</internalNodes>
      <leafValues>
        2.7359470725059509e-01 -7.5390599668025970e-02</leafValues></_>
    <_>
      <internalNodes>
        0 -1 109931 5.2789775654673576e-03</internalNodes>
      <leafValues>
        -3.2157741487026215e-02 5.5819988250732422e-01</leafValues></_>
    <_>
      <internalNodes>
        0 -1 120999 2.0493837073445320e-03</internalNodes>
      <leafValues>
        8.1484653055667877e-02 -2.5051635503768921e-01</leafValues></_>
    <_>
      <internalNodes>
        0 -1 84621 -7.8135440126061440e-03</internalNodes>
      <leafValues>
        8.1847482919692993e-01 -2.0082172006368637e-02</leafValues></_>
    <_>
      <internalNodes>
        0 -1 4025 8.6316317319869995e-03</internalNodes>
      <leafValues>
        5.2598938345909119e-02 -3.9771455526351929e-01</leafValues></_>
    <_>
      <internalNodes>
        0 -1 76864 5.7707997038960457e-03</internalNodes>
      <leafValues>
        -4.4699456542730331e-02 4.5046615600585938e-01</leafValues></_>
    <_>
      <internalNodes>
        0 -1 11006 -3.9769433438777924e-02</internalNodes>
      <leafValues>
        7.2939312458038330e-01 -2.8916791081428528e-02</leafValues></_>
    <_>
      <internalNodes>
        0 -1 96054 5.5848900228738785e-03</internalNodes>
      <leafValues>
        6.9857262074947357e-02 -3.4182038903236389e-01</leafValues></_>
    <_>
      <internalNodes>
        0 -1 82639 -2.2692547645419836e-03</internalNodes>
      <leafValues>
        2.2005583345890045e-01 -1.0369130223989487e-01</leafValues></_>
    <_>
      <internalNodes>
        0 -1 94587 4.1509950533509254e-03</internalNodes>
      <leafValues>
        -4.6470180153846741e-02 3.7543192505836487e-01</leafValues></_>
    <_>
      <internalNodes>
        0 -1 122037 -3.9894819259643555e-02</internalNodes>
      <leafValues>
        -6.7124795913696289e-01 2.5338983163237572e-02</leafValues></_>
    <_>
      <internalNodes>
        0 -1 28396 8.3511210978031158e-03</internalNodes>
      <leafValues>
        1.2030959874391556e-01 -1.6491657495498657e-01</leafValues></_>
    <_>
      <internalNodes>
        0 -1 46572 6.3971973955631256e-02</internalNodes>
      <leafValues>
        -3.6251019686460495e-02 6.1859691143035889e-01</leafValues></_>
    <_>
      <internalNodes>
        0 -1 71249 7.4744850397109985e-02</internalNodes>
      <leafValues>
        6.8584397435188293e-02 -3.2420575618743896e-01</leafValues></_>
    <_>
      <internalNodes>
        0 -1 75624 -1.0627368092536926e-01</internalNodes>
      <leafValues>
        3.5559612512588501e-01 -6.5284445881843567e-02</leafValues></_>
    <_>
      <internalNodes>
        0 -1 121400 -3.8468404673039913e-03</internalNodes>
      <leafValues>
        3.1283608078956604e-01 -7.0455260574817657e-02</leafValues></_>
    <_>
      <internalNodes>
        0 -1 30000 -1.2258100323379040e-03</internalNodes>
      <leafValues>
        2.0139327645301819e-01 -1.0186313837766647e-01</leafValues></_>
    <_>
      <internalNodes>
        0 -1 109573 -4.7862380743026733e-03</internalNodes>
      <leafValues>
        4.3837690353393555e-01 -4.8585396260023117e-02</leafValues></_>
    <_>
      <internalNodes>
        0 -1 86922 3.5196165554225445e-03</internalNodes>
      <leafValues>
        7.3173254728317261e-02 -3.4734472632408142e-01</leafValues></_>
    <_>
      <internalNodes>
        0 -1 110459 1.5742889046669006e-01</internalNodes>
      <leafValues>
        -3.1493268907070160e-02 7.5926697254180908e-01</leafValues></_>
    <_>
      <internalNodes>
        0 -1 6395 -9.5122111961245537e-03</internalNodes>
      <leafValues>
        1.9095468521118164e-01 -1.1492647975683212e-01</leafValues></_>
    <_>
      <internalNodes>
        0 -1 3589 -1.5559757128357887e-02</internalNodes>
      <leafValues>
        5.7791674137115479e-01 -3.9581097662448883e-02</leafValues></_>
    <_>
      <internalNodes>
        0 -1 79992 1.2276116758584976e-02</internalNodes>
      <leafValues>
        -4.6518161892890930e-02 4.1666185855865479e-01</leafValues></_>
    <_>
      <internalNodes>
        0 -1 8567 -1.4071407914161682e-01</internalNodes>
      <leafValues>
        -7.4584794044494629e-01 3.0873257666826248e-02</leafValues></_>
    <_>
      <internalNodes>
        0 -1 28214 -4.3144352734088898e-02</internalNodes>
      <leafValues>
        3.2405745983123779e-01 -6.7005813121795654e-02</leafValues></_>
    <_>
      <internalNodes>
        0 -1 79764 2.1393412680481561e-05</internalNodes>
      <leafValues>
        -1.2622256577014923e-01 1.6961719095706940e-01</leafValues></_>
    <_>
      <internalNodes>
        0 -1 66575 3.8872979581356049e-02</internalNodes>
      <leafValues>
        -3.4923579543828964e-02 6.5880525112152100e-01</leafValues></_>
    <_>
      <internalNodes>
        0 -1 93723 2.1016657352447510e-02</internalNodes>
      <leafValues>
        4.5778509229421616e-02 -5.0276201963424683e-01</leafValues></_>
    <_>
      <internalNodes>
        0 -1 64545 6.5738083794713020e-03</internalNodes>
      <leafValues>
        -7.0671990513801575e-02 3.2332515716552734e-01</leafValues></_>
    <_>
      <internalNodes>
        0 -1 105698 2.4539639707654715e-03</internalNodes>
      <leafValues>
        -1.0124069452285767e-01 2.1919602155685425e-01</leafValues></_>
    <_>
      <internalNodes>
        0 -1 18915 -3.3510293811559677e-02</internalNodes>
      <leafValues>
        3.8626098632812500e-01 -5.4215997457504272e-02</leafValues></_>
    <_>
      <internalNodes>
        0 -1 28267 -1.4192757010459900e-01</internalNodes>
      <leafValues>
        -5.3762590885162354e-01 4.1676871478557587e-02</leafValues></_>
    <_>
      <internalNodes>
        0 -1 55046 2.8724722564220428e-02</internalNodes>
      <leafValues>
        4.4810540974140167e-02 -4.5543286204338074e-01</leafValues></_>
    <_>
      <internalNodes>
        0 -1 123801 -5.3536146879196167e-03</internalNodes>
      <leafValues>
        6.6241329908370972e-01 -3.2399237155914307e-02</leafValues></_>
    <_>
      <internalNodes>
        0 -1 123572 1.0065080132335424e-03</internalNodes>
      <leafValues>
        -1.1945994198322296e-01 1.6487143933773041e-01</leafValues></_>
    <_>
      <internalNodes>
        0 -1 99284 -1.0258487891405821e-03</internalNodes>
      <leafValues>
        2.4230937659740448e-01 -8.9223809540271759e-02</leafValues></_>
    <_>
      <internalNodes>
        0 -1 27971 -1.8546771258115768e-02</internalNodes>
      <leafValues>
        2.4206356704235077e-01 -8.9747212827205658e-02</leafValues></_>
    <_>
      <internalNodes>
        0 -1 23552 -4.2733346344903111e-04</internalNodes>
      <leafValues>
        -2.9319176077842712e-01 6.7610085010528564e-02</leafValues></_>
    <_>
      <internalNodes>
        0 -1 123526 -3.8616009987890720e-05</internalNodes>
      <leafValues>
        1.3920016586780548e-01 -1.4869304001331329e-01</leafValues></_>
    <_>
      <internalNodes>
        0 -1 1935 3.9783949032425880e-03</internalNodes>
      <leafValues>
        -1.0880796611309052e-01 1.9828690588474274e-01</leafValues></_>
    <_>
      <internalNodes>
        0 -1 113697 5.9745172038674355e-03</internalNodes>
      <leafValues>
        -2.0985005423426628e-02 9.4434756040573120e-01</leafValues></_>
    <_>
      <internalNodes>
        0 -1 64192 6.0405838303267956e-04</internalNodes>
      <leafValues>
        -9.0720869600772858e-02 2.1529397368431091e-01</leafValues></_>
    <_>
      <internalNodes>
        0 -1 12511 -2.8143303468823433e-02</internalNodes>
      <leafValues>
        -4.9395257234573364e-01 4.3793119490146637e-02</leafValues></_>
    <_>
      <internalNodes>
        0 -1 103174 -2.6756033301353455e-02</internalNodes>
      <leafValues>
        2.6976379752159119e-01 -7.8203968703746796e-02</leafValues></_>
    <_>
      <internalNodes>
        0 -1 109469 -2.1527320146560669e-02</internalNodes>
      <leafValues>
        -3.8558429479598999e-01 6.6851757466793060e-02</leafValues></_>
    <_>
      <internalNodes>
        0 -1 939 -2.6767047122120857e-02</internalNodes>
      <leafValues>
        2.1953031420707703e-01 -9.8419755697250366e-02</leafValues></_>
    <_>
      <internalNodes>
        0 -1 80236 -6.3366070389747620e-02</internalNodes>
      <leafValues>
        -7.9690188169479370e-01 2.6381315663456917e-02</leafValues></_>
    <_>
      <internalNodes>
        0 -1 83804 -6.4174756407737732e-02</internalNodes>
      <leafValues>
        5.3812736272811890e-01 -4.5044913887977600e-02</leafValues></_>
    <_>
      <internalNodes>
        0 -1 79183 -7.5925728306174278e-03</internalNodes>
      <leafValues>
        -1.8042179942131042e-01 1.2663708627223969e-01</leafValues></_>
    <_>
      <internalNodes>
        0 -1 124471 2.9782229103147984e-03</internalNodes>
      <leafValues>
        6.1953082680702209e-02 -3.6356708407402039e-01</leafValues></_>
    <_>
      <internalNodes>
        0 -1 75845 9.5761857926845551e-02</internalNodes>
      <leafValues>
        2.4033330380916595e-02 -7.8003215789794922e-01</leafValues></_>
    <_>
      <internalNodes>
        0 -1 82911 -3.2608229666948318e-02</internalNodes>
      <leafValues>
        -5.0659435987472534e-01 3.9164643734693527e-02</leafValues></_>
    <_>
      <internalNodes>
        0 -1 57192 -1.0463064908981323e-01</internalNodes>
      <leafValues>
        4.1053774952888489e-01 -5.3186062723398209e-02</leafValues></_>
    <_>
      <internalNodes>
        0 -1 99284 9.3092181487008929e-04</internalNodes>
      <leafValues>
        -9.0029492974281311e-02 2.3454122245311737e-01</leafValues></_>
    <_>
      <internalNodes>
        0 -1 121268 8.7596923112869263e-03</internalNodes>
      <leafValues>
        -3.3496007323265076e-02 6.4923393726348877e-01</leafValues></_>
    <_>
      <internalNodes>
        0 -1 80412 6.8950131535530090e-02</internalNodes>
      <leafValues>
        -6.6039338707923889e-02 2.9003810882568359e-01</leafValues></_>
    <_>
      <internalNodes>
        0 -1 81508 -5.5871587246656418e-03</internalNodes>
      <leafValues>
        2.2548869252204895e-01 -9.4132177531719208e-02</leafValues></_>
    <_>
      <internalNodes>
        0 -1 67337 -3.8360503967851400e-03</internalNodes>
      <leafValues>
        1.8272300064563751e-01 -1.1950493603944778e-01</leafValues></_>
    <_>
      <internalNodes>
        0 -1 76769 -1.5974208712577820e-02</internalNodes>
      <leafValues>
        -2.4842371046543121e-01 9.2930458486080170e-02</leafValues></_>
    <_>
      <internalNodes>
        0 -1 39492 -2.2608790546655655e-02</internalNodes>
      <leafValues>
        -2.6059797406196594e-01 1.0511498898267746e-01</leafValues></_>
    <_>
      <internalNodes>
        0 -1 74998 -1.4322656206786633e-03</internalNodes>
      <leafValues>
        1.8499962985515594e-01 -1.2184459716081619e-01</leafValues></_>
    <_>
      <internalNodes>
        0 -1 30933 3.3569117076694965e-03</internalNodes>
      <leafValues>
        -1.0095166414976120e-01 2.1995975077152252e-01</leafValues></_>
    <_>
      <internalNodes>
        0 -1 13666 3.3930175006389618e-02</internalNodes>
      <leafValues>
        6.8366035819053650e-02 -3.6524063348770142e-01</leafValues></_>
    <_>
      <internalNodes>
        0 -1 101607 -1.2388910166919231e-02</internalNodes>
      <leafValues>
        -4.2383831739425659e-01 6.1596401035785675e-02</leafValues></_>
    <_>
      <internalNodes>
        0 -1 68668 -1.7956511583179235e-03</internalNodes>
      <leafValues>
        2.4752648174762726e-01 -1.0199780762195587e-01</leafValues></_>
    <_>
      <internalNodes>
        0 -1 60809 -8.8495044037699699e-03</internalNodes>
      <leafValues>
        3.5098907351493835e-01 -6.7853778600692749e-02</leafValues></_>
    <_>
      <internalNodes>
        0 -1 53704 1.3464999385178089e-02</internalNodes>
      <leafValues>
        9.4007790088653564e-02 -2.5393855571746826e-01</leafValues></_>
    <_>
      <internalNodes>
        0 -1 125133 6.6757109016180038e-03</internalNodes>
      <leafValues>
        5.5780589580535889e-02 -3.8594487309455872e-01</leafValues></_>
    <_>
      <internalNodes>
        0 -1 111805 -3.0896034091711044e-02</internalNodes>
      <leafValues>
        5.8017343282699585e-01 -3.5284403711557388e-02</leafValues></_>
    <_>
      <internalNodes>
        0 -1 125026 1.6544088721275330e-02</internalNodes>
      <leafValues>
        -5.1584709435701370e-02 4.0556535124778748e-01</leafValues></_>
    <_>
      <internalNodes>
        0 -1 125131 2.0982385613024235e-03</internalNodes>
      <leafValues>
        9.9263623356819153e-02 -2.3353324830532074e-01</leafValues></_>
    <_>
      <internalNodes>
        0 -1 62210 7.1805994957685471e-03</internalNodes>
      <leafValues>
        -9.3997716903686523e-02 2.3277841508388519e-01</leafValues></_>
    <_>
      <internalNodes>
        0 -1 18837 4.1058525443077087e-02</internalNodes>
      <leafValues>
        6.8398736417293549e-02 -3.5855656862258911e-01</leafValues></_>
    <_>
      <internalNodes>
        0 -1 26297 5.0801098346710205e-02</internalNodes>
      <leafValues>
        4.6931523829698563e-02 -4.5381119847297668e-01</leafValues></_></weakClassifiers></stage47>
</opencv_storage>
