<?xml version="1.0"?>
<opencv_storage>
<stage3>
  <maxWeakCount>37</maxWeakCount>
  <stageThreshold>-1.3269550800323486e+00</stageThreshold>
  <weakClassifiers>
    <_>
      <internalNodes>
        0 -1 84620 -3.5556252114474773e-03</internalNodes>
      <leafValues>
        5.9006214141845703e-01 -2.0500347018241882e-01</leafValues></_>
    <_>
      <internalNodes>
        0 -1 121727 6.0101896524429321e-02</internalNodes>
      <leafValues>
        5.6652940809726715e-02 -6.7986005544662476e-01</leafValues></_>
    <_>
      <internalNodes>
        0 -1 99072 2.0410427823662758e-03</internalNodes>
      <leafValues>
        -1.1154909618198872e-02 6.9344514608383179e-01</leafValues></_>
    <_>
      <internalNodes>
        0 -1 55612 -4.4129849411547184e-03</internalNodes>
      <leafValues>
        7.4150449037551880e-01 -8.5271865129470825e-02</leafValues></_>
    <_>
      <internalNodes>
        0 -1 54811 -3.1038904562592506e-03</internalNodes>
      <leafValues>
        6.9675087928771973e-01 -1.0810922831296921e-01</leafValues></_>
    <_>
      <internalNodes>
        0 -1 54489 2.6105619035661221e-03</internalNodes>
      <leafValues>
        -1.0468229651451111e-01 5.0245499610900879e-01</leafValues></_>
    <_>
      <internalNodes>
        0 -1 124380 -1.9261175475548953e-04</internalNodes>
      <leafValues>
        -2.4576443433761597e-01 2.1516054868698120e-01</leafValues></_>
    <_>
      <internalNodes>
        0 -1 70264 -1.6191627364605665e-03</internalNodes>
      <leafValues>
        4.5657750964164734e-01 -1.3486561179161072e-01</leafValues></_>
    <_>
      <internalNodes>
        0 -1 88504 8.2157365977764130e-04</internalNodes>
      <leafValues>
        1.9200676679611206e-01 -2.8589719533920288e-01</leafValues></_>
    <_>
      <internalNodes>
        0 -1 98819 4.2963530868291855e-03</internalNodes>
      <leafValues>
        -8.7532639503479004e-02 7.0095282793045044e-01</leafValues></_>
    <_>
      <internalNodes>
        0 -1 52128 6.6880717873573303e-02</internalNodes>
      <leafValues>
        1.0595186799764633e-01 -5.6375330686569214e-01</leafValues></_>
    <_>
      <internalNodes>
        0 -1 104638 -3.1537516042590141e-03</internalNodes>
      <leafValues>
        6.7634534835815430e-01 -7.6727278530597687e-02</leafValues></_>
    <_>
      <internalNodes>
        0 -1 123552 1.7538054089527577e-04</internalNodes>
      <leafValues>
        1.4154674112796783e-01 -3.6477699875831604e-01</leafValues></_>
    <_>
      <internalNodes>
        0 -1 124687 3.4850609954446554e-03</internalNodes>
      <leafValues>
        -1.1330820620059967e-01 4.4502246379852295e-01</leafValues></_>
    <_>
      <internalNodes>
        0 -1 123462 3.1771059148013592e-03</internalNodes>
      <leafValues>
        -9.7410805523395538e-02 5.1263290643692017e-01</leafValues></_>
    <_>
      <internalNodes>
        0 -1 109018 2.9847480356693268e-02</internalNodes>
      <leafValues>
        1.0566619783639908e-01 -5.3570002317428589e-01</leafValues></_>
    <_>
      <internalNodes>
        0 -1 123552 -2.7803293778561056e-04</internalNodes>
      <leafValues>
        -3.8180935382843018e-01 1.4940519630908966e-01</leafValues></_>
    <_>
      <internalNodes>
        0 -1 92803 1.8392147030681372e-03</internalNodes>
      <leafValues>
        -9.6990250051021576e-02 5.0939291715621948e-01</leafValues></_>
    <_>
      <internalNodes>
        0 -1 38051 -6.9685280323028564e-03</internalNodes>
      <leafValues>
        6.4407742023468018e-01 -6.8534821271896362e-02</leafValues></_>
    <_>
      <internalNodes>
        0 -1 28894 4.8491445340914652e-05</internalNodes>
      <leafValues>
        -2.2411639988422394e-01 2.3315438628196716e-01</leafValues></_>
    <_>
      <internalNodes>
        0 -1 101676 2.0228237845003605e-03</internalNodes>
      <leafValues>
        1.0476858168840408e-01 -4.9376589059829712e-01</leafValues></_>
    <_>
      <internalNodes>
        0 -1 209 -1.6397746279835701e-02</internalNodes>
      <leafValues>
        3.0839589238166809e-01 -1.7098072171211243e-01</leafValues></_>
    <_>
      <internalNodes>
        0 -1 30571 -6.5044760704040527e-02</internalNodes>
      <leafValues>
        2.6049554347991943e-01 -2.2700899839401245e-01</leafValues></_>
    <_>
      <internalNodes>
        0 -1 1052 1.6902744770050049e-02</internalNodes>
      <leafValues>
        -9.2564865946769714e-02 5.6438589096069336e-01</leafValues></_>
    <_>
      <internalNodes>
        0 -1 93541 -6.5053962171077728e-03</internalNodes>
      <leafValues>
        5.2326476573944092e-01 -9.7908683121204376e-02</leafValues></_>
    <_>
      <internalNodes>
        0 -1 123462 -5.4068360477685928e-03</internalNodes>
      <leafValues>
        7.7590274810791016e-01 -6.0644600540399551e-02</leafValues></_>
    <_>
      <internalNodes>
        0 -1 99453 4.4419653713703156e-03</internalNodes>
      <leafValues>
        -4.3912559747695923e-02 8.4444111585617065e-01</leafValues></_>
    <_>
      <internalNodes>
        0 -1 44484 9.6344631165266037e-03</internalNodes>
      <leafValues>
        -7.5263060629367828e-02 5.1932537555694580e-01</leafValues></_>
    <_>
      <internalNodes>
        0 -1 121460 3.0373737681657076e-03</internalNodes>
      <leafValues>
        -1.2887351214885712e-01 3.6424687504768372e-01</leafValues></_>
    <_>
      <internalNodes>
        0 -1 99884 -1.7077595111913979e-04</internalNodes>
      <leafValues>
        -3.5018306970596313e-01 1.4517609775066376e-01</leafValues></_>
    <_>
      <internalNodes>
        0 -1 110289 -1.4316484332084656e-02</internalNodes>
      <leafValues>
        -7.3555040359497070e-01 6.0819339007139206e-02</leafValues></_>
    <_>
      <internalNodes>
        0 -1 79626 -9.1459450777620077e-04</internalNodes>
      <leafValues>
        3.5201063752174377e-01 -1.3729460537433624e-01</leafValues></_>
    <_>
      <internalNodes>
        0 -1 113808 -1.1483445763587952e-02</internalNodes>
      <leafValues>
        -4.6819743514060974e-01 1.0117312520742416e-01</leafValues></_>
    <_>
      <internalNodes>
        0 -1 84175 2.4004722945392132e-03</internalNodes>
      <leafValues>
        -7.8923106193542480e-02 5.8643800020217896e-01</leafValues></_>
    <_>
      <internalNodes>
        0 -1 122991 1.0437117889523506e-03</internalNodes>
      <leafValues>
        1.0425568372011185e-01 -5.2854204177856445e-01</leafValues></_>
    <_>
      <internalNodes>
        0 -1 83700 -4.1111060418188572e-03</internalNodes>
      <leafValues>
        5.6933516263961792e-01 -9.7349517047405243e-02</leafValues></_>
    <_>
      <internalNodes>
        0 -1 125092 9.9315436091274023e-04</internalNodes>
      <leafValues>
        1.7071582376956940e-01 -3.0242508649826050e-01</leafValues></_></weakClassifiers></stage3>
</opencv_storage>
